svm_type c_svc
kernel_type rbf
gamma 8
nr_class 8
total_sv 3816
rho -0.561334 -0.221187 -0.191434 -0.456115 -0.935098 -0.522027 -0.200098 0.305353 0.404494 0.150505 -0.708294 -0.0343757 0.305921 0.0376178 -0.176051 -0.743226 -0.327328 0.0518897 -0.218684 -0.785255 -0.332046 0.00520322 -0.683538 -0.132576 0.16231 0.553094 0.724823 0.322329
label 8 6 3 1 4 2 5 7
probA -3.69729 -6.04921 -5.89214 -5.49126 -3.42368 -6.72184 -7.02458 -4.02659 -4.16029 -3.66431 -2.94448 -5.82527 -6.62349 -3.6108 -4.6356 -3.98787 -4.76294 -9.2231 -5.42877 -4.35299 -5.71208 -8.24866 -5.19122 -4.53149 -3.94331 -6.9134 -6.79151 -8.89999
probB 0.308936 1.78265 1.72155 1.49369 -1.06272 2.02138 1.68522 -0.0199517 -0.127229 -0.0119403 -0.0860329 -0.00994702 -0.342188 0.0513051 0.160218 0.50479 0.220318 -0.276972 0.235793 0.725518 0.624519 -0.211462 1.39259 -0.013981 -0.08864 -2.48618 -2.44448 -1.53078
nr_sv 1746 322 376 351 316 36 295 374
SV
0.1591832762356042 0.4229088593178809 0.3335651885093864 0.2772878654674217 0 0.09761829553654233 0.7666059564147218 1:0.112782 2:-0.00758621 3:0.0237602 4:0.537783 5:-0.0448267 6:0.492731 7:0.189299 8:-0.361416 9:-0.100469 10:-0.762257 
0.2417866309976248 0.3992791054852588 0.4215188779886235 0.2655679946313768 0.03391841959993751 0.2498277961556183 0.4174592228337185 1:0.0414804 2:-0.112903 3:0.367187 4:-0.239106 5:-0.0485831 6:0.703797 7:0.59203 8:-0.52756 9:-0.388488 10:0.573355 
0 0.2451938556313792 0.3286598144108622 0 0.05677065596107863 0.1202548063196973 0 1:-0.311 2:-0.468819 3:0.159844 4:0.0882336 5:0.19874 6:0.246504 7:0.0767823 8:-0.366929 9:-0.420414 10:0.159662 
0 0.06628982145456222 0 0 0 0 0 1:-0.481847 2:0.418276 3:0.148142 4:0.460786 5:-0.121055 6:0.248462 7:0.0756433 8:-0.509993 9:-0.0417449 10:-0.402127 
0 0.9303631267113383 0 0 0 0 0 1:-0.116542 2:0.214966 3:0.481597 4:0.111832 5:-0.0879186 6:0.137658 7:0.0071257 8:-0.406713 9:-0.387494 10:0.091072 
0 0.1642838255779394 0 0 0 0 0 1:-0.156011 2:-0.00157417 3:0.1595 4:0.040141 5:-0.298478 6:0.216844 7:-0.086092 8:-0.179336 9:-0.388989 10:0.0547823 
3.92316212763389 0 0 0.3942547394404092 0 0 0 1:-0.369487 2:0.00810263 3:0.25024 4:0.142204 5:0.265019 6:0.210241 7:-0.0478161 8:-0.381659 9:-0.440207 10:-0.10265 
0 0 0.02489669992117357 0.3179390971088024 0 0 0.6240107470117698 1:-0.147519 2:-0.441845 3:0.0124126 4:-0.0745886 5:0.0633117 6:0.246175 7:0.181343 8:-0.129097 9:-0.231398 10:-0.0411892 
0.5377660948943943 0.1812513080634646 0 1.403723791896508 0 0 0 1:0.0354785 2:-0.0504313 3:0.479039 4:0.178113 5:0.126425 6:0.136496 7:0.0392581 8:-0.393824 9:0.0837685 10:-0.0592108 
0 0 0.09590000280091003 0 0 0 0.05798848722668746 1:-0.0719724 2:-0.183848 3:0.0386385 4:0.115051 5:-0.097343 6:0.0812139 7:-0.0135856 8:-0.520928 9:0.159913 10:0.0103733 
0 0.5324930764623953 0.6735671449921686 0 0 0 0.2765766507623611 1:-0.0921613 2:-0.121722 3:-0.0644376 4:0.522855 5:-0.255136 6:0.122936 7:0.0588566 8:-0.305705 9:-0.757771 10:-0.242384 
0.6667664282384365 0 0 0 0 0 0 1:-0.00938675 2:-0.194714 3:0.0992753 4:0.643212 5:-0.0173434 6:0.108889 7:0.266788 8:-0.392241 9:-0.0816097 10:-0.340341 
0 0.00698901021337905 0.8481990185376116 0 0 0 0 1:-0.0305542 2:-0.095893 3:0.38785 4:-0.0855366 5:-0.0994813 6:0.156029 7:-0.0827063 8:-0.389175 9:-0.0471537 10:-0.0312586 
0.9666940152282741 0 0 0 0 0 0 1:-0.351674 2:0.117873 3:0.217435 4:-0.117288 5:-0.0714205 6:0.45538 7:-0.170409 8:-0.42407 9:-0.17468 10:-0.0743233 
0 0 0.04729930525213415 0 0 0 6.597796573674533 1:0.251074 2:0.296738 3:0.192197 4:0.0163901 5:0.00176865 6:0.487248 7:-0.0458976 8:-0.477146 9:-0.254535 10:-0.341041 
3.189453342614315 2.230307266343056 0 0 0 0 0 1:-0.108776 2:0.258184 3:0.365479 4:0.18043 5:0.053809 6:0.363984 7:-0.192281 8:-0.490186 9:-0.256042 10:-0.135306 
0 0 0 0.4065528285831173 0 0 0 1:-0.328756 2:0.32655 3:0.147973 4:0.126949 5:-0.0994697 6:0.409529 7:0.112309 8:-0.583541 9:0.0340203 10:-0.0655282 
0 0 0 0 0 1.0118140064778 0 1:-0.212424 2:0.206131 3:-0.0114266 4:0.0485596 5:-0.446368 6:0.339917 7:0.0821133 8:-0.375996 9:-0.162962 10:-0.177525 
4.902673853854006 3.989222519357898 0 0 0 0 0 1:-0.403112 2:0.0772996 3:0.0704175 4:0.243019 5:-0.0600392 6:0.276313 7:0.0616737 8:-0.243037 9:-0.320562 10:-0.215033 
0 0 0 0 0 0 0.161395971434877 1:0.163342 2:0.113584 3:0.215036 4:0.0128158 5:-0.395074 6:0.335036 7:-0.213201 8:-0.271274 9:-0.580379 10:-0.16317 
0.2096418324766525 0 0 0 0 0 0 1:-0.375299 2:0.353631 3:0.259302 4:0.0452676 5:0.00294537 6:0.303307 7:-0.195801 8:-0.524981 9:-0.409426 10:-0.0634905 
0 0.06360175595125211 0 0 0 0 0.09416481483954552 1:0.185804 2:0.186864 3:0.421019 4:0.340282 5:-0.0183736 6:-0.0316568 7:0.124355 8:-0.268961 9:-0.309262 10:-0.383672 
0 0 0.3676340927976283 0 0 0 0 1:-0.25767 2:0.39331 3:0.144582 4:0.528619 5:-0.199131 6:0.0857176 7:0.107088 8:-0.321266 9:-0.156668 10:-0.318909 
0 0 0 0.7719714724880987 0 0 0 1:0.166813 2:-0.219021 3:0.423831 4:0.0779431 5:0.00443345 6:0.151877 7:-0.0378087 8:-0.523592 9:-0.185134 10:-0.020135 
0 0 0 6.586817720395993 0 0 1.564434016858909 1:0.0471647 2:-0.115692 3:0.177147 4:-0.0859164 5:-0.059831 6:0.312328 7:0.0735042 8:-0.460378 9:0.00253427 10:-0.104143 
0 0.0531980544871409 0 0 0 0 0 1:0.44195 2:0.560418 3:-0.0926392 4:0.244224 5:0.316637 6:0.172666 7:0.411858 8:-0.317863 9:-0.246874 10:-0.258198 
0 2.726460436639741 0 0 0 0 0 1:-0.712623 2:-0.0138156 3:0.145687 4:0.194715 5:0.128858 6:0.266623 7:-0.103059 8:-0.317297 9:-0.346207 10:-0.151553 
0.6254420616278763 0 0 0 0 0.08641287369160673 0 1:-0.127305 2:0.108617 3:0.120358 4:0.249652 5:-0.252331 6:0.209982 7:0.0548773 8:-0.321885 9:-0.166474 10:-0.193472 
0 0 0 0.6099056540399217 0 0 0 1:-0.317805 2:0.380107 3:0.144046 4:0.0282669 5:-0.109443 6:0.243307 7:-0.0831202 8:-0.409747 9:-0.145033 10:-0.0495874 
0 0 0 0.3012393016476374 0.9401823227124787 0 0 1:-0.11174 2:0.0656024 3:0.0441456 4:0.132247 5:-0.0082821 6:0.342872 7:-0.0533078 8:-0.469601 9:-0.193476 10:0.0152167 
0 0.2039132715807126 0.4048442383042604 1.431946071133958 0 0 2.24631688617552 1:-0.149774 2:-0.16202 3:0.201374 4:-0.0489432 5:0.103233 6:0.531374 7:-0.108958 8:-0.552204 9:-0.127865 10:0.0413741 
0.1009191710539118 0 0 0 0 0 0.6909531371117831 1:0.0802065 2:0.163987 3:0.0772973 4:0.211645 5:-0.333631 6:0.352977 7:0.092876 8:-0.503341 9:-0.0983359 10:-0.207412 
0.09990566434151385 0 0 0 0.7520425068003787 0 0.3026832800491669 1:-0.173589 2:-0.251072 3:0.0067453 4:0.587224 5:-0.0160802 6:0.275547 7:-0.00335661 8:-0.483837 9:-0.392175 10:0.0217328 
0.1256956080119 0.1769064442866701 0.2167033590538753 0.1339660216727782 0.02746963037071138 0.1131229561184208 0.5798091408797472 1:0.489352 2:0.271129 3:0.478974 4:0.308804 5:0.294406 6:0.536525 7:0.0178966 8:-0.255965 9:-0.452545 10:-0.0323515 
1.386584726688211 0.1817080993684688 0.01766166249912158 0.6876746650035251 0 0 0 1:-0.0902502 2:0.034901 3:0.187854 4:-0.0521046 5:-0.0667694 6:0.394143 7:-0.234036 8:-0.243224 9:0.423074 10:-0.201768 
0 0 0.0007783453016454547 0 0 0 0 1:0.112034 2:0.0514418 3:-0.45792 4:0.245763 5:-0.20568 6:0.158365 7:0.170238 8:-0.713407 9:-0.785032 10:0.206653 
0 1.156882375998466 0 0 0 0 0 1:0.0407354 2:0.0625795 3:0.452592 4:0.149422 5:0.0575583 6:0.358549 7:-0.0821639 8:-0.473835 9:-0.246704 10:0.145702 
0.1342665160496551 0.1842120450059374 0.1855685092613524 0.1296256083212005 0.009827889170927764 0.4181444006339587 0.2763042730070182 1:0.0593264 2:0.0530026 3:-0.391406 4:0.134857 5:-0.14731 6:0.173906 7:0.159677 8:-0.751127 9:-0.654352 10:0.192747 
0 0.2340102223117891 0 0.07749663854943353 0 0.09694355827792843 0.4003185805914481 1:-0.107104 2:-0.360176 3:0.0658587 4:0.544149 5:0.215077 6:0.212491 7:-0.156701 8:-0.39823 9:-0.458836 10:-0.281304 
1.213259162917394 0 0 0 0 0 0.6982985560864339 1:-0.0872024 2:-0.178204 3:0.0487429 4:0.0130801 5:-0.141725 6:0.251937 7:-0.0318484 8:-0.468657 9:0.0353608 10:-0.0351322 
0.1083382003176844 0 0 0.1659016835887496 0 0.06134674915636731 0.168345995094178 1:-0.336727 2:0.686686 3:0.19345 4:-0.0658271 5:0.0894982 6:0.352271 7:-0.00442685 8:-0.462021 9:-0.543838 10:-0.538555 
0 0.2263926627367734 0.2934638393235024 0.6328323095232832 2.652895812009487 0 0 1:0.0783926 2:0.146091 3:0.357901 4:-0.0626141 5:-0.226313 6:0.291914 7:0.16808 8:-0.584199 9:0.00397961 10:-0.102672 
0 0 1.691098524116793 0 0 0 0.06905525338577362 1:-0.441317 2:0.515096 3:0.210519 4:0.0429519 5:0.0741948 6:0.465835 7:-0.128745 8:-0.156212 9:0.0408284 10:-0.211512 
1.104307965690026 0 0 0.1118578759303116 0 0 0 1:-0.129097 2:0.160169 3:0.167522 4:0.464861 5:-0.177941 6:0.220099 7:-0.0158739 8:-0.623076 9:-0.036325 10:-0.126732 
0.6450497224739881 0 0 0 0 0 0 1:-0.000773526 2:0.277647 3:0.170278 4:0.00969376 5:-0.0869288 6:0.222809 7:-0.128544 8:-0.0764447 9:-0.425253 10:-0.466622 
0.0592985944951487 0.07449486628614334 0.2408280998858846 0.1846749169368027 0 0.1752243156719078 0.1359685399988781 1:0.210638 2:-0.257437 3:-0.300066 4:0.635137 5:-0.335584 6:0.104569 7:0.174064 8:-0.573358 9:-0.0794623 10:0.118831 
0.5142935168218095 0 0 0 0.6986002261065893 0 0.1307748655198905 1:-0.250892 2:-0.220451 3:-0.153859 4:0.168456 5:-0.268516 6:0.430373 7:0.210593 8:-0.257951 9:-0.348451 10:-0.0700703 
0 0 0 0 0 0 0.0627078339932847 1:-0.396474 2:0.135788 3:0.0663022 4:0.477747 5:-0.19928 6:0.058563 7:-0.170167 8:-0.484459 9:-0.0975319 10:-0.519079 
0 8 0 0 0 0 0 1:-0.630779 2:0.13762 3:0.0711452 4:0.197964 5:-0.0497189 6:0.22619 7:0.214121 8:-0.502182 9:-0.256158 10:-0.259906 
0 0.4972087231986789 0.5302144781553916 0.3610975121413206 0.02866251349180507 0.1885495868348223 0.5776067518011654 1:-0.536736 2:0.239139 3:0.141942 4:0.354517 5:-0.212769 6:-0.0897534 7:0.675328 8:-0.326111 9:-0.198855 10:-0.219205 
0 0 0.8293424387584616 0 0 0 0.08022586151784569 1:-0.223001 2:-0.0834614 3:0.196396 4:-0.0505852 5:-0.0473099 6:0.0497782 7:0.113303 8:-0.173965 9:-0.179074 10:-0.608549 
0 0 0 0 0 0 0.1111081923863551 1:0.204001 2:0.0516336 3:0.267266 4:-0.0619898 5:-0.399911 6:0.271099 7:-0.240202 8:-0.287389 9:-0.552326 10:-0.179589 
0.1954899297702838 0 0.4872196297466931 0 0 0.08298793928689754 0 1:-0.278358 2:-0.00605747 3:0.0175228 4:0.300806 5:-0.300529 6:0.256232 7:0.409522 8:-0.350798 9:-0.151103 10:-0.142601 
1.481119449119667 0 0 0 0 0 0 1:0.0879593 2:0.0842549 3:0.388387 4:0.253516 5:-0.0141667 6:0.361172 7:0.0741371 8:-0.577456 9:-0.185725 10:-0.38142 
0 3.823084754639187 0 0 0 0 0 1:-0.521606 2:0.205322 3:0.0967439 4:0.28578 5:0.205312 6:0.455138 7:-0.017369 8:-0.411029 9:-0.134637 10:-0.347666 
0 0.09007123761522356 0 0 0 0 0 1:-0.220991 2:0.0604064 3:0.321804 4:0.354214 5:0.112884 6:0.207457 7:0.339572 8:-0.427453 9:-0.12776 10:-0.204395 
0 0 0 0.2259993454219358 0 0 0 1:-0.10096 2:0.0107527 3:0.121467 4:0.30399 5:-0.0132188 6:0.115653 7:0.0734984 8:-0.488854 9:0.147381 10:-0.143601 
0.6898569636974036 0 0 0 0 0 0.3849099489772735 1:0.101354 2:0.0817632 3:-0.0413284 4:0.0303626 5:-0.313966 6:0.500204 7:-0.280579 8:-0.0902536 9:-0.397315 10:-0.152572 
0.2795285832028023 0.5426734833032679 0.6966916145040404 0.2576744693276459 0.4660331228847628 0.2086270957087903 0.3190696050541944 1:-0.357468 2:-0.451519 3:-0.00621614 4:-0.12858 5:-0.104081 6:0.155172 7:0.191687 8:-0.118035 9:-0.30316 10:0.148226 
0 0 0 0 0 0 0.04366307481928747 1:0.417346 2:0.593924 3:0.209634 4:-0.0150678 5:0.00932514 6:0.261778 7:0.346302 8:-0.360308 9:-0.486566 10:-0.300533 
0 0.1376083583753397 0.1370451392706789 0.02708699029138166 0 0 0.1575431892431279 1:-0.0513486 2:0.25324 3:0.106246 4:0.506761 5:-0.518076 6:0.246242 7:0.0706218 8:-0.372549 9:-0.559088 10:0.18502 
3.439473555750412 1.219438805558235 0 0.09548111160375304 3.269310327602087 1.280084254400387 0 1:-0.292608 2:0.151988 3:0.123487 4:0.106739 5:-0.24929 6:0.224398 7:-0.01012 8:-0.188178 9:-0.00679399 10:0.014958 
0 0.4029040634644437 0.2162456300665884 0.09810900539364233 0 0 0 1:-0.34212 2:-0.0256138 3:0.462906 4:0.169946 5:0.330811 6:0.0806359 7:-0.218403 8:-0.441408 9:-0.102167 10:0.169665 
0 0.09915222885072666 1.993505300956307 0 0 0 0 1:-0.268658 2:0.228402 3:0.146635 4:0.528985 5:-0.148552 6:0.44199 7:0.233577 8:-0.489627 9:-0.334418 10:-0.0230117 
0 0.1680229669979917 0.1555853191653604 0 0 0.06261537723211032 0.08562572613976216 1:0.433104 2:0.0607578 3:0.246239 4:-0.029192 5:-0.161457 6:0.0550357 7:-0.0278576 8:-0.628406 9:0.149405 10:0.0365037 
0 0 0.2504372661698445 0 0 0 0 1:-0.246016 2:0.402124 3:0.0480995 4:0.0867838 5:0.00113269 6:0.122099 7:-0.0616754 8:-0.242607 9:-0.191375 10:-0.100668 
0.07651335051387431 0.1773239876300326 0.1824939285464754 0.05811589806236236 0.02491363015620677 0.1292644273676586 0 1:0.36917 2:0.563742 3:0.33469 4:0.616052 5:0.176091 6:0.345216 7:0.00996117 8:-0.159103 9:0.00475806 10:0.141314 
0 0 0 0 2.742995443965935 0 0 1:-0.0746953 2:0.25715 3:0.255733 4:0.0980522 5:-0.195238 6:0.247483 7:-0.088854 8:-0.549965 9:0.11581 10:-0.0484087 
5.021820699030362 0 0 0 0 0 0 1:-0.28995 2:-0.292125 3:0.0704468 4:-0.192552 5:-0.122319 6:0.342291 7:0.0198716 8:-0.236956 9:-0.165496 10:-0.13421 
1.762370131841183 0 0.1687060691263075 1.670489978533317 0 0.138364644964636 0 1:0.0944879 2:0.3189 3:-0.0257019 4:0.243331 5:-0.0814398 6:0.490687 7:-0.389601 8:-0.505652 9:-0.187756 10:-0.197276 
0.2535775839164213 0.3770245771642199 0.3937086754330364 0.2869861639604551 0.03509349914134917 0.2303304504155734 0.3879989329759744 1:0.076478 2:0.348412 3:0.657461 4:-0.777029 5:-0.0744432 6:-0.0554953 7:-0.0380744 8:-0.363761 9:0.215088 10:0.0674837 
2.328571605492293 0 0 0 0 0 0 1:-0.434991 2:-0.0691601 3:0.257688 4:0.236773 5:0.244821 6:0.301677 7:-0.206644 8:-0.313583 9:-0.299551 10:-0.115181 
0 0 0.05246119498016175 0 0 0.09171081898630173 0 1:-0.494973 2:0.482393 3:0.20698 4:0.134784 5:-0.00170911 6:0.445204 7:-0.100913 8:-0.284952 9:0.110729 10:-0.275162 
0.5921140026207051 0 0 0 0 0 0 1:-0.294569 2:-0.0230636 3:0.13841 4:0.12153 5:-0.175784 6:0.283728 7:0.0343365 8:-0.310947 9:-0.384756 10:-0.238077 
0.6162474675105213 0 0 0.2391954209285248 0 0 0 1:-0.182948 2:0.0909268 3:0.138398 4:0.183903 5:-0.00494095 6:0.203366 7:-0.21066 8:-0.356667 9:-0.240332 10:-0.0755569 
0 0.4006549890037612 0 0 0 0 0 1:-0.00199121 2:0.00114634 3:0.177366 4:-0.0137531 5:-0.237786 6:0.186284 7:-0.196967 8:-0.0941493 9:-0.421584 10:-0.103005 
0 2.270435178164715 0.6536859141399657 0 0 0 0.4873027559141413 1:-0.233816 2:0.522293 3:0.177317 4:0.00154604 5:-0.045585 6:0.32836 7:0.0591544 8:-0.418009 9:-0.43857 10:-0.50576 
3.631303471810148 0 0 0.7449593956157409 0 0 0 1:-0.222224 2:0.127637 3:0.170844 4:-0.137648 5:-0.0863911 6:0.429966 7:-0.119642 8:-0.312662 9:0.149641 10:-0.126745 
0 0.6409114229365277 0 0 0 0 0 1:-0.406759 2:-0.0419685 3:0.369625 4:0.0960961 5:0.222275 6:0.227634 7:-0.0259049 8:-0.410146 9:-0.392957 10:-0.139743 
0 0 0 0.4677268396385834 0 0 0 1:0.0297425 2:0.107523 3:0.228908 4:0.277132 5:0.0370969 6:-0.0183882 7:-0.0316471 8:-0.361397 9:0.102562 10:0.0724683 
0.2515012752175534 0.4138587631010491 0.4389230386910326 0.3185868704627235 0.03420969843580811 0.250952300894537 0.4305933323912259 1:0.00872103 2:-0.102058 3:0.370568 4:-0.275976 5:-0.024626 6:0.658204 7:0.556389 8:-0.525884 9:-0.278808 10:0.620241 
0 0 0 0.7096634779856174 0 0 0 1:0.00740194 2:0.140472 3:0.036889 4:-0.192608 5:-0.167033 6:0.247643 7:0.248023 8:-0.525864 9:-0.215385 10:0.110165 
0.1118268178805528 0.3450966742115437 0.3667600233631946 0.2755041684535523 0.005170134260711742 0.2219643654286038 0.370622620948236 1:0.391711 2:-0.0205281 3:0.0451422 4:0.580711 5:-0.133385 6:0.255153 7:0.360264 8:-0.0701976 9:-0.102232 10:-0.383211 
0.08376234328161583 0 0 0 0 0 0 1:0.401139 2:0.537343 3:0.33921 4:0.574893 5:0.152689 6:0.326918 7:0.00621398 8:-0.193364 9:0.0100803 10:0.162876 
0 0 1.704027040578078 0 0 0 0 1:-0.254059 2:0.350239 3:0.168881 4:0.236754 5:-0.239279 6:0.386243 7:0.104958 8:-0.244896 9:-0.0819856 10:-0.0955199 
0 3.833366407436752 0 0 0 0 0 1:-0.204377 2:0.338701 3:0.0647954 4:0.108271 5:0.0265247 6:0.384928 7:0.157338 8:-0.431388 9:-0.127371 10:-0.180961 
0.7493198575329065 0 0 0 0 0 0 1:-0.0792791 2:0.122238 3:0.140286 4:0.45942 5:-0.173852 6:0.21968 7:-0.0707246 8:-0.584908 9:-0.0133872 10:-0.0583613 
4.176476180233383 0 0 0 0 0 0 1:-0.160258 2:0.306212 3:0.225147 4:-0.0211062 5:-0.227582 6:0.448759 7:-0.28514 8:-0.415625 9:-0.302016 10:-0.150612 
0 0 0 0 1.527272517245529 0 0 1:-0.286674 2:-0.0227578 3:0.0280651 4:0.053322 5:-0.133802 6:0.315186 7:-0.025347 8:-0.14747 9:0.00572369 10:-0.157961 
0.1040160408584057 0.02089820281570204 0.8374665035003576 0.2640511180594967 0 0 0.07609349358313432 1:0.102831 2:-0.263267 3:0.176282 4:0.761996 5:0.214741 6:0.204424 7:-0.242406 8:-0.489538 9:-0.136196 10:-0.307094 
0 0 0 0 0 0.7407442309740593 0 1:-0.116756 2:0.225 3:-0.156706 4:0.420428 5:0.153713 6:0.0533549 7:-0.31676 8:-0.294773 9:0.180679 10:-0.193051 
0.6254260222439454 0 0 2.220214704608576 0 0 0 1:0.0744895 2:0.380034 3:0.165451 4:-0.061408 5:-0.259142 6:0.270789 7:0.0294505 8:-0.430942 9:-0.0266008 10:0.000776108 
0 0 1.800899313479232 0.3031281450024932 0 0.3459078607128043 0.2111901709501165 1:-0.250587 2:0.114053 3:0.310242 4:0.0485258 5:0.375364 6:0.190443 7:0.28737 8:-0.329265 9:-0.352599 10:-0.199161 
0 0 0 0 0 0.06681780145536576 0 1:-0.0511977 2:0.332119 3:0.396037 4:-0.0033345 5:0.207815 6:0.138042 7:-0.196314 8:-0.466217 9:-0.248439 10:0.128855 
0 0 0 0 0 0.1753153539274357 0 1:-0.317693 2:0.0184047 3:0.0453431 4:0.0841416 5:-0.308231 6:0.29791 7:0.106671 8:-0.375141 9:-0.062062 10:-0.117852 
1.437130489718874 0 0 0 0.1567775580610429 0 0 1:-0.311269 2:-0.103115 3:0.158986 4:0.25909 5:0.127271 6:0.269299 7:0.400142 8:-0.305748 9:-0.038925 10:-0.128575 
0.2879952873876416 0.5861506493587645 0.5450562176360778 0.5046648097450199 3.315095611990277 0.3271778450997363 0.7148423774218987 1:0.0897534 2:0.516407 3:0.0304051 4:0.552466 5:-0.40572 6:0.535044 7:0.0477985 8:-0.281708 9:0.00828998 10:-0.0967499 
0 0 0 0 0.3372909211012985 0 0.08671492887324501 1:0.0452859 2:-0.0149011 3:0.0224939 4:0.535915 5:-0.186881 6:0.249447 7:-0.157699 8:-0.631168 9:0.00753961 10:-0.0703802 
0 0.0760800100961548 0.1192284071128225 0.08785597470965245 0.01102925662867972 0.01176550011128047 0.1239838232261805 1:0.324021 2:0.226563 3:0.194992 4:-0.363872 5:0.0704693 6:0.343153 7:0.357227 8:-0.388896 9:-0.348006 10:0.292543 
0.3765067926014384 0 0 0 0 0 0 1:-0.317404 2:-0.0152981 3:-0.146911 4:-0.0178614 5:-0.196651 6:0.270115 7:-0.222811 8:-0.190862 9:-0.174387 10:-0.215333 
0 0 0.07944922666411254 0 0 0 0.1983530266163502 1:-0.194622 2:0.376318 3:0.194761 4:-0.00299555 5:-0.375178 6:-0.043315 7:-0.158843 8:-0.289054 9:-0.196256 10:0.246328 
0 0 0 0 0 1.024394475080811 0 1:-0.404388 2:0.161295 3:0.056789 4:0.284354 5:0.347439 6:0.144177 7:-0.0116658 8:-0.239898 9:-0.24951 10:-0.0307948 
0 0 0 0 0 0.1112284154108318 0 1:0.0360892 2:0.0419244 3:0.184803 4:-0.036589 5:-0.41044 6:0.298678 7:-0.0276348 8:-0.40684 9:0.0220512 10:-0.496066 
0.05925028828165593 0.1147832655701071 0.2106346284183577 0.7272942758213345 0 0.1503649972320678 1.128693655561642 1:0.12365 2:0.2761 3:-0.0465301 4:-0.0491473 5:0.0513203 6:0.422104 7:-0.524938 8:-0.355414 9:-0.162995 10:-0.107949 
3.966495994139541 0 0 0 0.6950017337825994 0 0 1:-0.0814181 2:0.0581015 3:0.342165 4:0.233192 5:0.180615 6:0.289438 7:-0.0500931 8:-0.303189 9:-0.115653 10:-0.121495 
0.0828092716384371 0 0.3925694795454893 0.2285498272070928 0 0 0.6410741478373179 1:0.0411336 2:0.546018 3:-0.0391236 4:-0.128701 5:0.335845 6:0.240146 7:0.112882 8:-0.342727 9:-0.463761 10:-0.203006 
0 0 0 2.430324828385175 0 0 0 1:-0.165506 2:0.299096 3:0.223058 4:0.238799 5:-0.139012 6:0.109121 7:-0.130299 8:-0.276398 9:-0.00838288 10:-0.111335 
0 0 2.253725233416189 0 0 0 0 1:-0.374602 2:0.106231 3:0.0892434 4:0.227213 5:-0.283349 6:0.214691 7:0.0556357 8:-0.505552 9:-0.0565881 10:-0.252106 
5.109543418591009 0 0 6.69784491460495 0 0 0 1:-0.355351 2:-0.0917718 3:0.112458 4:0.126444 5:0.110069 6:0.355643 7:-0.151613 8:-0.382638 9:-0.187528 10:-0.131256 
6.291345770277408 0.1245347482038499 0 0.8719680062523265 0 0.6345009742667878 0.8546666250897431 1:0.00527969 2:0.169975 3:0.183948 4:-0.00276728 5:-0.017504 6:0.476636 7:0.0099212 8:-0.17836 9:0.0426636 10:-0.182912 
0.2713016376778061 0.757141842723149 0.965062461942049 0.3840721420748904 0.01079505662845798 0.3319465028415041 0.3102185171804055 1:-0.404997 2:-0.122052 3:-0.148614 4:0.419644 5:-0.0305823 6:0.586244 7:-0.426005 8:-0.242061 9:-0.436469 10:-0.101511 
0 0 0 0 0 0 0.5792792404809465 1:0.0637328 2:0.280591 3:0.215907 4:-0.350463 5:0.0167014 6:0.34839 7:0.0956107 8:-0.234624 9:-0.389492 10:-0.22515 
0 0.4785036420554719 0 0 0 0 0 1:-0.218671 2:0.0689507 3:-0.121695 4:0.199923 5:0.137673 6:0.163142 7:-0.0431889 8:-0.284358 9:0.0464818 10:0.166756 
0 0.4426370017926902 0 0 0 0.09010931187757756 0 1:-0.139696 2:-0.0872301 3:0.27514 4:-0.26403 5:-0.317328 6:0.136533 7:-0.07036 8:-0.559417 9:-0.280835 10:0.0237671 
0.9267649833144922 0 7.838618258242427 0 0.5364895949223993 0 0 1:-0.418077 2:0.354802 3:0.23658 4:0.113702 5:-0.0144796 6:0.365387 7:-0.164115 8:-0.471921 9:-0.406618 10:-0.0634952 
0 0 0 0.5128992048838449 0 0 0 1:0.0339679 2:0.182412 3:0.318522 4:0.16103 5:0.203658 6:0.27536 7:-0.000205996 8:-0.374518 9:-0.230296 10:-0.267472 
0 1.778234111811177 0.4707685866590732 0.3122064124320276 0.004864327972788562 0 0 1:-0.49848 2:0.343379 3:-0.178971 4:0.11565 5:0.187285 6:0.382731 7:0.300185 8:-0.528084 9:0.0783361 10:-0.250796 
0 0.6546779329771157 0 0 0 0 0.1930155759586724 1:-0.438181 2:0.0427744 3:0.0211622 4:0.516871 5:-0.1781 6:0.113737 7:-0.181635 8:-0.520169 9:-0.311565 10:-0.247538 
0 0 0 0 0 0 0.5770440607385228 1:0.0426774 2:0.264184 3:0.228427 4:-0.0815363 5:-0.0626514 6:0.217326 7:-0.191801 8:-0.143082 9:-0.362274 10:-0.447205 
0 0.1834903406228852 3.034643414494705 0 0 0 0 1:0.0156393 2:0.253149 3:0.227008 4:-0.0588216 5:-0.0729898 6:0.211666 7:-0.187533 8:-0.112008 9:-0.416624 10:-0.455432 
0 0 0 0.2696044997983891 0 0 0.7617698922936642 1:0.0577595 2:0.236358 3:0.463427 4:-0.0237697 5:0.1964 6:0.175578 7:-0.163588 8:-0.475109 9:-0.303551 10:0.134177 
0.8456354786523611 0 0 0 0 0 0 1:-0.44045 2:0.208428 3:0.242404 4:-0.0803584 5:-0.336654 6:0.251619 7:-0.241523 8:-0.524132 9:-0.26467 10:-0.37403 
0.09258379679922914 0.5940588647666144 0.6362424749099455 0.4519861585716216 0 0.3131819037310375 0.4359788807494819 1:-0.210856 2:-0.345736 3:-0.157249 4:0.79738 5:0.137743 6:0.385255 7:-0.201275 8:-0.561793 9:-0.53 10:-0.155841 
0 0.2512974608510175 0 0.652479524128583 0 0 1.526427982705053 1:0.0892017 2:0.0134373 3:0.0249426 4:-0.106377 5:0.204087 6:0.340739 7:0.360456 8:-0.427648 9:0.0252846 10:-0.463852 
0 0 0 0.9465764270623411 0 0 0.4237310294161762 1:0.0615272 2:0.300208 3:0.14102 4:-0.0821404 5:0.0139232 6:0.214692 7:-0.16247 8:-0.172728 9:-0.35183 10:-0.417995 
0.002035579505379727 0 0.3443175974079099 0 0 0 0 1:-0.150232 2:-0.173698 3:-0.155237 4:0.42836 5:-0.00021516 6:0.433324 7:0.339917 8:-0.344507 9:-0.313084 10:-0.173678 
0 0 0 3.613087132331196 0 0 0 1:-0.0612059 2:0.295708 3:0.162923 4:0.130959 5:-0.415 6:0.299456 7:0.014308 8:-0.382895 9:-0.00601592 10:-0.0599693 
1.233766488953834 0 0 0 0 0 0 1:-0.0799638 2:0.0291084 3:0.307385 4:0.247717 5:-0.08956 6:0.109363 7:-0.050986 8:-0.429838 9:0.0258213 10:-0.0922805 
0 0 0.9617638992532357 0 0 0 0 1:-0.0824408 2:0.430042 3:0.229529 4:0.417716 5:-0.30417 6:0.169225 7:0.0964874 8:-0.230939 9:-0.258043 10:-0.153272 
0 0 0 0.2745897280343919 0 0 0 1:-0.257538 2:0.372152 3:0.337966 4:0.440886 5:0.131767 6:0.255535 7:-0.142086 8:-0.121255 9:-0.109897 10:-0.224663 
0 0 1.331968713644265 0 0 0 0 1:-0.220621 2:0.0239889 3:0.179092 4:0.0308729 5:0.328319 6:0.204206 7:0.039822 8:-0.207899 9:-0.106908 10:-0.0236038 
0.856419551993198 0 0 0 0 0 0 1:0.0817463 2:-0.0969016 3:0.343782 4:0.318625 5:0.162034 6:0.130757 7:-0.0740402 8:-0.400185 9:-0.477723 10:-0.382858 
2.072337372973232 0 0 2.050374791149744 0 0 0 1:-0.426354 2:-0.157119 3:0.141566 4:0.107385 5:0.180209 6:0.366408 7:-0.0672137 8:-0.457576 9:-0.21576 10:-0.0741456 
0.4449956711570145 3.612478597506394 1.414998450823947 1.306248413623611 0 4.80951832782639 0 1:-0.317893 2:0.536727 3:0.0487226 4:-0.020394 5:0.28769 6:0.237228 7:-0.0251832 8:-0.527491 9:-0.331222 10:-0.052014 
0 0.1186921823428884 0.1393473565893281 0 0 0.06366768744973916 0.1343069569729512 1:0.211551 2:0.112732 3:0.0340991 4:0.598373 5:-0.256889 6:0.0104891 7:-0.275063 8:-0.586641 9:-0.102636 10:0.0260407 
0 0 0 0.6029127816115146 0 0 0 1:-0.115167 2:0.224546 3:0.276929 4:0.461249 5:0.102151 6:0.109181 7:0.00641757 8:-0.284116 9:0.0317318 10:-0.0872512 
2.070703123886013 0.2729857064721606 0.6416296887444428 0.5211068166541114 0.1798618489042904 0.1561441635334326 0.7421559520742043 1:-0.134752 2:-0.457268 3:0.086454 4:0.160007 5:0.2998 6:0.212173 7:0.290723 8:-0.190659 9:-0.188041 10:-0.0329262 
0 0 0 0.5547134885040673 0 0 0 1:0.059091 2:0.209246 3:0.176142 4:0.143954 5:-0.146105 6:0.143633 7:-0.343054 8:-0.470688 9:-0.114619 10:-0.251746 
0 0.0922023253883045 0.03318196405775005 0 0 0.02463557914343292 0.06847166479177981 1:0.237652 2:0.0608826 3:0.118873 4:0.474776 5:-0.259291 6:0.0594221 7:-0.226115 8:-0.65341 9:0.0487745 10:0.0533654 
0 0 0.6234185020141867 0 0 0 0 1:0.0512154 2:0.282264 3:0.455598 4:0.295188 5:-0.000928342 6:0.0328692 7:0.145293 8:-0.441274 9:-0.199173 10:-0.272563 
0.275660741900017 0.4881873353224306 0.5067804935744529 0.3559475451797516 0.04072626494341058 0.3008342357123071 0.5034554252663986 1:0.414551 2:0.119957 3:-0.75612 4:-0.560392 5:-0.345777 6:0.109466 7:-0.275605 8:0.0822029 9:-0.0182835 10:0.192372 
0.1367132534169717 0.4229537252088439 0.4446779323415881 0.3515712444541663 0.02666348068688215 0.2781591083309597 0.1178812817148489 1:0.318227 2:0.236303 3:0.22336 4:-0.327455 5:0.0193655 6:0.41356 7:0.366974 8:-0.349355 9:-0.367381 10:0.33179 
0 0 0 0 0 0.3593039708899339 0 1:-0.368284 2:0.763811 3:0.288653 4:-0.223832 5:-0.0576753 6:0.25267 7:0.179099 8:-0.143479 9:0.169477 10:0.0690963 
0.02780763196212411 0 0.2685847337828939 0 0 0 1.231160860748237 1:0.194133 2:0.380204 3:-0.0403244 4:-0.0520677 5:0.384705 6:0.31959 7:0.304355 8:-0.394563 9:-0.19005 10:-0.440906 
0 0 0 0 0 2.050972439667565 0 1:-0.278628 2:0.082714 3:0.346657 4:0.26374 5:0.22525 6:0.0446504 7:-0.030356 8:-0.400087 9:-0.188714 10:-0.181434 
0 0.05365268775697746 0 0 0 0 0 1:0.183992 2:-0.22272 3:0.408915 4:0.103608 5:-0.016039 6:0.138214 7:0.0492367 8:-0.524385 9:-0.141675 10:-0.0135182 
3.73885944103058 0 0 0 0.2788484376380447 0 0 1:-0.116885 2:0.233458 3:0.0982728 4:0.214295 5:-0.175008 6:0.294155 7:-0.144942 8:-0.224401 9:-0.0690452 10:-0.116923 
0 0 0 0 0 0 0.9658672398079169 1:0.0764745 2:0.311523 3:0.194341 4:-0.401551 5:0.120581 6:0.345035 7:0.140312 8:-0.248954 9:-0.428497 10:-0.204847 
0 0 0 0 0 0 0.1171002542167875 1:-0.297136 2:-0.245737 3:0.212151 4:-0.108918 5:0.0838604 6:0.41129 7:-0.0608511 8:-0.37719 9:-0.276478 10:-0.103652 
0 0 0 0.2785610125666446 0 0 0 1:0.0938773 2:0.237937 3:0.0415611 4:-0.0915537 5:-0.297883 6:0.33027 7:0.111047 8:-0.450152 9:-0.309613 10:-0.0451739 
1.0922458570843 0 1.490612557752188 0 0 1.70679724939869 0 1:-0.736367 2:0.135554 3:0.0967897 4:0.158432 5:0.023764 6:0.128373 7:-0.110164 8:-0.415299 9:-0.135353 10:-0.106893 
0 0.0759262522627953 0.5372114005293906 0 0 0 0 1:0.0268836 2:0.324719 3:0.222455 4:0.306964 5:-0.0996745 6:0.323092 7:-0.304961 8:-0.273334 9:0.118931 10:-0.348843 
0 0.165304542494406 0 0 0.1003111259967433 0 0 1:-0.00250131 2:0.0397842 3:0.315063 4:0.276727 5:0.00735699 6:0.0821687 7:-0.0358672 8:-0.371853 9:0.135227 10:0.0293795 
0 1.107689252321259 0 0 0 0 0 1:-0.150587 2:0.376164 3:0.110966 4:0.199301 5:0.337556 6:0.0804874 7:0.352247 8:-0.504066 9:-0.220969 10:-0.0616729 
0 0 0 0 0 0 0.2209723358438632 1:0.291095 2:-0.0365455 3:0.108834 4:0.468192 5:-0.0291904 6:0.310253 7:0.214279 8:-0.106737 9:-0.0963032 10:-0.36088 
0 0.1653285504281092 0.1888997698732335 2.216453130486221 0 0 0 1:-0.00736895 2:0.530126 3:-0.0167825 4:-0.0838665 5:0.277083 6:0.25204 7:0.166324 8:-0.337664 9:-0.449711 10:-0.319691 
0 0 0 0 0 0.4565179674409714 0 1:-0.032403 2:0.142333 3:0.0823919 4:0.329901 5:-0.276432 6:-0.0147858 7:-0.365919 8:-0.440932 9:0.0561123 10:-0.160934 
0 0.08253107562461638 0 0.4440706874300103 0 0.8743192738830733 0 1:-0.150063 2:0.243257 3:-0.14239 4:0.374907 5:0.204197 6:-0.0412167 7:-0.428047 8:-0.264743 9:0.216986 10:-0.144779 
0.2608187283089395 0.1511570891531838 0 0 0.04326276837485796 0 1.231530938408024 1:-0.0882554 2:-0.0158833 3:0.230524 4:0.278944 5:0.154023 6:0.532716 7:0.272649 8:-0.459116 9:-0.261371 10:-0.068428 
0.4236520761495217 0.1009208099842375 0.3440615257023872 0 0 0.2178479400591178 0.154617530949648 1:0.0313211 2:0.307314 3:0.460454 4:0.310191 5:0.0120043 6:0.00635383 7:0.0608212 8:-0.206512 9:-0.480275 10:-0.375466 
0 0 0 0.351759267271552 0 0 0.1873103444913249 1:0.115583 2:0.0281767 3:0.0325233 4:-0.109651 5:-0.281814 6:0.416788 7:-0.272081 8:-0.0364954 9:-0.308283 10:-0.182553 
0 0 0.1769918537609898 0 0 0.1147528463274081 0.06439140376534362 1:0.297209 2:-0.0046459 3:0.267747 4:0.266595 5:-0.206808 6:-0.0929316 7:-0.305526 8:-0.618353 9:0.174525 10:0.0448493 
0 0.1151357621817423 0 0 0 0 0 1:0.120447 2:-0.272387 3:0.214141 4:0.718426 5:0.235853 6:0.199109 7:-0.225791 8:-0.511291 9:-0.0971763 10:-0.307479 
0 0 0 0 3.569458003016171 0 0 1:-0.23299 2:0.152016 3:0.072839 4:0.249312 5:-0.0905991 6:0.275529 7:-0.0616678 8:-0.286379 9:0.0105495 10:-0.317118 
0 3.391429936576174 0 0.6528929715525352 0 0 0 1:-0.352091 2:0.329304 3:0.154663 4:0.130353 5:-0.104592 6:0.414314 7:0.156314 8:-0.617398 9:0.049301 10:-0.0466555 
0 1.961930560411346 0.3218195416159473 0 0 3.640780919356119 0 1:-0.527956 2:0.57476 3:-0.000628136 4:0.0541188 5:-0.0396745 6:0.250491 7:-0.16946 8:-0.525941 9:-0.161819 10:0.0319322 
0 0.4724548456510173 0.4014221781444289 0 0.007319378563105917 0.2438606311905677 0.2746615242915481 1:-0.533172 2:0.111904 3:0.0752484 4:0.306668 5:0.150297 6:0.671792 7:0.236871 8:-0.707966 9:0.0674828 10:0.213922 
0 0 0 0 1.299698099365285 0 0 1:0.24205 2:0.0289443 3:0.341089 4:0.121061 5:-0.218438 6:0.134458 7:-0.199515 8:-0.539647 9:0.173117 10:0.0707208 
0 0 0 0.2225156094208627 0 0 0 1:-0.163983 2:0.433195 3:0.154207 4:-0.0279838 5:0.1946 6:0.0898878 7:0.205413 8:-0.326792 9:-0.409259 10:-0.195766 
0 0.09283444812210422 0.4289132760444276 0 0 0 0 1:-0.322413 2:0.637852 3:0.176579 4:-0.0275478 5:0.019691 6:0.359378 7:0.00666233 8:-0.43481 9:-0.502025 10:-0.523014 
0.2005386953600448 0.4986821114274677 1.331728467127441 0.2179698577821197 0.0902451103538592 0.09342059875646491 0.2427808035707869 1:-0.692514 2:0.3302 3:0.349993 4:0.166574 5:0.0575914 6:0.324423 7:0.290692 8:-0.433049 9:-0.631357 10:-0.241346 
0 0.1109632422012845 0.1699290046670549 0 0 0 0.3261227855564955 1:0.100186 2:0.56085 3:-0.249741 4:0.0895575 5:0.239269 6:0.114286 7:-0.142475 8:-0.357569 9:0.0975714 10:-0.185536 
0.4397740965480796 0.7783840969091951 0.8084400100202833 0.5439586691473199 0.06489464625059173 0.4777908593438284 0.7998504789050889 1:-0.232467 2:0.816944 3:0.478066 4:0.196742 5:0.352138 6:1 7:0.474683 8:0.0785221 9:-0.277235 10:0.610004 
0.09816154259582739 0.1154268418277598 0.2656096217638453 0.6980100722140522 0 0.06196838830118701 0.6033640755544535 1:0.417942 2:-0.13908 3:0.3207 4:0.164989 5:-0.161874 6:0.157841 7:-0.3608 8:-0.384176 9:0.0728995 10:0.102567 
0 0 0.5789613922722625 0 0 0 0 1:-0.103688 2:0.119249 3:0.12792 4:0.140417 5:-0.32104 6:0.18917 7:0.11154 8:-0.602672 9:-0.00210203 10:-0.60411 
0 0 0 0 0 2.581348779619762 0 1:-0.0913811 2:0.417437 3:0.0134253 4:-0.0364222 5:0.0732539 6:0.176013 7:0.0441214 8:-0.312472 9:-0.333955 10:-0.36894 
0.1557872111241365 0.5468645138800318 0.2118192834771159 0.7890204268449251 0 0.3512201981416661 0 1:-0.0248371 2:0.310062 3:0.134976 4:-0.0395997 5:0.0530507 6:0.418991 7:-0.534496 8:-0.399433 9:-0.140151 10:-0.0926088 
0 0 0 0.09047594222735021 0 0 0.2797278242202077 1:-0.73426 2:0.126256 3:0.129949 4:0.126357 5:0.0585525 6:0.105878 7:-0.1768 8:-0.394469 9:-0.192562 10:-0.113085 
0 1.677271658283995 0.995168089525845 1.168812281651928 0 0.5078345119226945 0.2181367028345781 1:-0.616276 2:0.014329 3:0.116291 4:-0.0259971 5:0.12587 6:0.562446 7:-0.00114402 8:-0.317935 9:-0.0723051 10:-0.0846106 
0 0 0.8151132464356221 0 0 0.3160269457682448 0 1:0.0656762 2:0.288608 3:0.223395 4:-0.389128 5:0.0608825 6:0.335261 7:0.111206 8:-0.21857 9:-0.409984 10:-0.219708 
2.883194662498779 0 0 0 0 0 0 1:-0.194091 2:-0.011475 3:0.118687 4:0.0333007 5:0.114772 6:0.472085 7:-0.0418466 8:-0.226727 9:0.136234 10:-0.161006 
0.2368893235489888 0.5352566108818733 0.5326883567789155 0.4531679823154955 0 0.1253028907777063 0.5836757164342012 1:-0.309412 2:0.734967 3:0.332244 4:-0.266306 5:-0.141369 6:0.195653 7:0.0943803 8:-0.12528 9:0.14893 10:0.0702374 
0 0.1281915570196895 0.2012310822898777 0 0 0 0.1203594989703171 1:-0.0094938 2:-0.0610734 3:-0.0600303 4:0.321362 5:-0.557393 6:0.177433 7:0.0593137 8:-0.251045 9:-0.564421 10:0.132282 
1.577029186260854 0.3557501469616863 0 0.1904902778622342 0 0.05883909896996693 0.0827796197979197 1:-0.089435 2:0.0436396 3:0.208446 4:0.0644291 5:-0.248508 6:0.109463 7:0.0442122 8:-0.63623 9:-0.0991832 10:-0.625143 
0 0 0 0 0 0 0.01672127109334171 1:0.403794 2:0.122841 3:0.121753 4:0.156696 5:-0.133618 6:0.109174 7:-0.0163339 8:-0.625761 9:-0.060484 10:0.0256899 
0 0 0 0.2805028680122706 0 0 0 1:0.337555 2:0.0656071 3:0.209024 4:0.427041 5:-0.0133666 6:0.72153 7:0.238512 8:-0.360865 9:-0.278894 10:0.128696 
0 0 0 0 0 0 0.2701957667460128 1:-0.350419 2:0.153439 3:-0.20879 4:0.074655 5:0.249528 6:-0.0904517 7:0.188651 8:-0.250733 9:-0.14939 10:-0.23458 
0 0 0.2201135272178366 0.5456546390173413 0 0.2626678690673219 0.1493954922284478 1:0.244569 2:0.0056739 3:0.334605 4:0.167348 5:-0.163196 6:-0.072991 7:-0.33254 8:-0.609738 9:0.197222 10:0.0228413 
0.1117394092161657 0 0 0.5582257235945696 0 0.5113489109213728 0 1:0.0534577 2:0.0522006 3:0.270324 4:-0.0077922 5:0.255081 6:0.232464 7:0.343645 8:-0.142573 9:-0.21905 10:-0.376203 
0 0 1.447582014614192 0 0 0 0 1:-0.154692 2:-0.0330412 3:0.314304 4:-0.340983 5:-0.233863 6:0.40923 7:0.0123634 8:-0.53043 9:-0.178058 10:-0.0396317 
0 0 0 0.1071870805393552 0 0 0 1:-0.160823 2:-0.146872 3:-0.065582 4:0.872848 5:0.20255 6:0.376783 7:0.28132 8:-0.354116 9:-0.124914 10:-0.167925 
0 0 0.5760870264443265 0 0 0 0 1:0.040459 2:0.28346 3:0.0177449 4:0.267409 5:-0.440425 6:0.404251 7:0.0807425 8:-0.270956 9:-0.140831 10:-0.180301 
0 0 0 0 0 0 0.05518007684640131 1:-0.0454498 2:0.247004 3:0.0629589 4:0.433009 5:0.0867303 6:-0.0316767 7:-0.00688092 8:-0.289616 9:0.0603282 10:0.100355 
0.6539323779395759 0 0 0 0 0 0 1:-0.0325578 2:0.24662 3:0.255443 4:0.0228913 5:-0.176551 6:0.280882 7:-0.213333 8:-0.449804 9:-0.0527119 10:-0.0833915 
0 0.1168909338470122 0.8104880483397966 0 0 0 0 1:-0.378775 2:0.145971 3:-0.18531 4:0.0880792 5:0.248319 6:-0.0546128 7:0.17525 8:-0.235764 9:-0.14727 10:-0.248028 
0.7431863569324288 0 0 0 0 0 0 1:0.049031 2:0.227963 3:0.0318455 4:0.189414 5:-0.090964 6:0.342938 7:-0.158816 8:-0.291864 9:-0.0674621 10:-0.245825 
0 0 0.06953635222928702 0 0 0 0 1:-0.223157 2:-0.147487 3:-0.024025 4:0.706207 5:0.173472 6:0.35744 7:0.194765 8:-0.317978 9:-0.171707 10:-0.174098 
0 0 0.2344176271955835 0 0 0 0 1:-0.000588831 2:0.176955 3:0.146676 4:-0.138673 5:-0.34053 6:0.320779 7:0.231298 8:-0.47202 9:-0.220344 10:-0.0635158 
4.162154902767235 0 0.03215193212324238 0 0.3773136377887008 0 0.5233831247681426 1:-0.315697 2:-0.434932 3:0.124743 4:0.0584009 5:0.131578 6:0.299087 7:-0.0385497 8:-0.338916 9:-0.482949 10:0.0993554 
0 0 0 0.6003792543457547 0 0 0 1:-0.0625271 2:0.283427 3:0.453851 4:0.205443 5:-0.171053 6:0.198823 7:0.043931 8:-0.347056 9:-0.288216 10:0.0491161 
0.302707779846774 0.4382543402367093 0.4290804070933398 0.3189322209967465 0.02876606858408788 0.2830346171015298 0.6060290182581326 1:0.295981 2:0.0449569 3:-0.187914 4:-0.12737 5:0.0747608 6:0.473876 7:0.477321 8:-0.717787 9:-0.362666 10:0.148301 
0 0 0.4175323838971125 0 0 0 0 1:-0.185548 2:-0.114115 3:0.209756 4:-0.191915 5:-0.347652 6:0.151974 7:-0.0413197 8:-0.52717 9:-0.369255 10:0.00555141 
0 0.5288006232657135 0.1075139028625247 4.06578969929085 0 0 0 1:-0.0546982 2:0.349143 3:-0.089159 4:0.00215933 5:0.136942 6:0.204133 7:-0.105447 8:-0.266885 9:0.146223 10:-0.00149666 
0 0 0 0.6906743044288459 0 0 0 1:0.00748264 2:0.116476 3:0.307373 4:0.00361359 5:-0.0151381 6:0.133528 7:0.312606 8:-0.327203 9:-0.171286 10:-0.138952 
3.134112887187944 0 0 3.488514838949662 0.2353968432217519 0 0 1:-0.103788 2:0.155625 3:0.211258 4:-0.178634 5:-0.251108 6:0.305844 7:-0.162793 8:-0.449144 9:-0.0834635 10:-0.0728272 
0 0 0 1.949726899432267 0 0 0 1:-0.173048 2:0.356221 3:0.111176 4:-0.173219 5:-0.282774 6:0.178312 7:0.0922708 8:-0.301108 9:-0.208695 10:-0.14932 
0 0.3923511934959079 0 0 0 0 0 1:0.283559 2:-0.014065 3:0.418199 4:0.0856382 5:-0.16941 6:-0.00247017 7:-0.245309 8:-0.609541 9:0.195785 10:0.0494666 
0 3.703773046131555 0.5568581113285218 0 0.2172633833569412 0 0.1521720623449318 1:-0.640581 2:0.19547 3:0.2175 4:0.450023 5:0.17798 6:0.379893 7:0.118329 8:-0.294265 9:-0.468382 10:-0.40051 
0 0 0 0 0 0.1783987987840057 0 1:-0.189829 2:0.412597 3:0.0378942 4:-0.104094 5:-0.363707 6:0.172922 7:0.101343 8:-0.210059 9:-0.228178 10:-0.169385 
1.407086971203358 0 0 3.025402348361472 0 0 0 1:-0.20577 2:0.166786 3:0.285054 4:0.0070209 5:-0.0232097 6:0.39701 7:-0.189207 8:-0.25821 9:-0.0112827 10:-0.13859 
0 0 0 0 0 0 0.4076881319728332 1:-0.144695 2:-0.219113 3:0.25092 4:0.346947 5:0.108308 6:0.150259 7:-0.0504562 8:-0.404629 9:-0.327022 10:-0.0893971 
0 0.2688064722392728 0 0 0 0.11841672850428 0.1804464035172624 1:0.372373 2:0.0034027 3:0.0709397 4:0.522949 5:-0.151395 6:0.267702 7:0.381442 8:-0.0786712 9:-0.0191757 10:-0.350579 
7.699073452067416 0 0 0 0 0 0 1:-0.00709733 2:-0.0657026 3:0.27786 4:0.0893966 5:0.0169961 6:0.408855 7:0.0132854 8:-0.287616 9:-0.0303987 10:-0.169573 
0.7733374746054774 1.039863375106371 0.7648282808099549 0.3831627426049782 0.6861598918398344 0.4088339637700703 0.5538420735123105 1:-0.286639 2:-0.441005 3:0.108183 4:0.312831 5:0.265541 6:0.0286279 7:0.384449 8:-0.172034 9:-0.18433 10:0.271082 
0.3093743296869275 0 0 0 0 0 0 1:-0.11086 2:0.164363 3:0.0450375 4:0.277015 5:0.318488 6:0.174053 7:0.206487 8:-0.230412 9:-0.312867 10:-0.282111 
0.5229017651977652 1.047352211531668 0.2520354195160291 0.5128020874690399 0 0 0.2916047966675172 1:-0.201414 2:0.225464 3:0.160955 4:-0.0682568 5:-0.126433 6:0.539936 7:0.407845 8:-0.419562 9:-0.258521 10:0.0157812 
0 1.023852113208728 0 0 0 0 0.04481047443812981 1:-0.327872 2:0.121738 3:0.0413518 4:0.572787 5:-0.186168 6:0.295476 7:0.181147 8:-0.669691 9:-0.471609 10:-0.137412 
0 0 0 0 0.02038662812902542 0 0 1:-0.492259 2:-0.235644 3:-0.0406855 4:0.400136 5:0.236333 6:0.43611 7:-0.558702 8:-0.0864137 9:-0.505353 10:-0.193307 
0 0 1.291507463435625 0 0 0 0 1:-0.127334 2:-0.163172 3:0.188111 4:0.499081 5:0.0151918 6:0.0490864 7:0.203821 8:-0.371752 9:-0.0777854 10:-0.388906 
0 0.04013197228184532 0.4767742884610272 0 0 0 0.1785665163254109 1:-0.600089 2:0.349003 3:0.224233 4:0.204705 5:-0.0732166 6:0.0877503 7:0.425511 8:-0.316615 9:-0.503829 10:-0.163267 
0 0 0.07200129330054415 0 0 0 0 1:0.12308 2:-0.126103 3:-0.0947464 4:0.504136 5:-0.147586 6:0.295673 7:0.304214 8:-0.326181 9:-0.568189 10:-0.161991 
0.4825519725700951 0 0 0 0 0 0 1:-0.369746 2:-0.0737089 3:0.35639 4:0.0775294 5:0.230063 6:0.251903 7:-0.070126 8:-0.387084 9:-0.437477 10:-0.11539 
0 0.01240761433512656 0.03030885854457576 0 0 0.8581764231118061 0.1293111454655693 1:-0.113427 2:-0.117642 3:-0.113802 4:-0.0586468 5:0.167049 6:0.120861 7:0.293427 8:-0.194696 9:0.0797438 10:-0.125772 
0 0 0 0.151605323985269 0 0.0004951296255692079 0.1551754716616411 1:-0.166536 2:-0.134891 3:-0.00373583 4:0.845652 5:0.264343 6:0.346819 7:0.285821 8:-0.299329 9:-0.0765157 10:-0.228638 
0 0 0 0 0.1684431103602429 0 0 1:-0.243034 2:0.132331 3:0.045298 4:0.431077 5:0.27617 6:0.204635 7:0.0836545 8:-0.155698 9:-0.294938 10:-0.0540129 
0 0.03589256642749133 0 0.2490233302657768 0 0.4696478263576403 0.08322056853907384 1:0.171318 2:0.0205619 3:0.133628 4:0.181671 5:0.38446 6:-0.101154 7:-0.0402013 8:-0.498571 9:-0.52851 10:-0.203533 
0.5995028006859885 0 0 0 0 0 0 1:-0.0227753 2:-0.0364005 3:0.319605 4:0.0128181 5:0.157087 6:0.202918 7:0.278867 8:-0.143074 9:-0.164802 10:-0.422493 
0 0 0 0 0.01083246463381172 0 0 1:-0.0304864 2:0.0594603 3:0.00424576 4:0.297051 5:-0.345538 6:0.297377 7:0.056019 8:-0.552143 9:-0.493411 10:-0.0436562 
0.2553688422161542 0.454716869024628 0.4706727371976649 0.319535820670409 0.03722690064240836 0.2834905224652295 0.4743910518267452 1:0.531796 2:0.0181569 3:-0.446933 4:0.691766 5:0.0075696 6:0.166321 7:-0.590304 8:-0.432511 9:-1 10:-0.192638 
1.464470705407791 2.469060527980407 0 0 0 7.338977675522346 0 1:-0.379347 2:0.299526 3:0.114596 4:0.395254 5:0.119079 6:0.212528 7:0.0443284 8:-0.52807 9:0.0333869 10:-0.0718778 
0 0 0 3.107324344106601 0 0 0 1:-0.0350494 2:0.284443 3:0.113499 4:0.15339 5:-0.0220581 6:0.147881 7:0.0444312 8:-0.220885 9:-0.111778 10:-0.105604 
2.698739805324719 0 0 0 0 0 2.432621638654154 1:-0.0675097 2:-0.249775 3:0.128404 4:0.268234 5:-0.0225941 6:0.320641 7:0.00786904 8:-0.445226 9:-0.34102 10:-0.0300241 
0 0 0 0 0 0 0.3192989238527321 1:-0.135129 2:0.302853 3:0.360698 4:0.370936 5:0.0513083 6:0.429225 7:-0.0598456 8:-0.164534 9:-0.146344 10:-0.345089 
0 0.06412969379666204 0.08221109035974558 0 0 0 0 1:0.132251 2:0.44761 3:-0.221008 4:0.249797 5:0.0437127 6:0.0649052 7:0.0671247 8:-0.181923 9:0.00397296 10:0.14981 
0.7096193980185626 0 0 3.311605094915124 0 0 0 1:-0.149603 2:-0.201021 3:0.334978 4:-0.033004 5:0.210345 6:0.342968 7:-0.0528781 8:-0.491211 9:0.11242 10:-0.0699152 
3.288838889643324 0 5.652542439159073 0 0 0 0 1:-0.266482 2:0.142977 3:0.43689 4:0.198866 5:0.190304 6:0.131095 7:-0.0356132 8:-0.322281 9:-0.425037 10:-0.127797 
0 0 0 0 0.779469407535877 0 0 1:-0.414936 2:-0.0499043 3:0.347779 4:0.146219 5:0.338865 6:0.201119 7:-0.067759 8:-0.203238 9:-0.270238 10:-0.11198 
0 0.2984133356886867 0 0 0 0 0 1:-0.308969 2:-0.196241 3:-0.134153 4:0.398284 5:-0.054569 6:0.512847 7:-0.395117 8:-0.220768 9:-0.433802 10:-0.132752 
0 0 0 0.7764267882955678 0 0 0 1:-0.127954 2:-0.0540394 3:0.309658 4:-0.361806 5:-0.26427 6:0.416837 7:0.000435454 8:-0.553561 9:-0.156873 10:-0.0114256 
0 0 0 0.06303119951411935 0 0 0.5188158814031951 1:0.436659 2:0.528184 3:0.393836 4:0.422061 5:0.148989 6:0.398543 7:0.00946064 8:-0.156603 9:-0.0543792 10:0.178367 
0 0.4808559855827619 0.3256233196102274 0.07394477285032169 0 0.2106079228675069 0.4162702546471025 1:-0.0425738 2:0.0548132 3:-0.163288 4:-0.0944769 5:0.0525236 6:0.0340069 7:0.333021 8:-0.135494 9:-0.746523 10:-0.093073 
0 0.2779919011266683 0 0 0 0 0.0009000086058222087 1:-0.187221 2:0.171448 3:-0.188525 4:0.335988 5:0.318259 6:0.205274 7:-0.220636 8:-0.510326 9:-0.389294 10:-0.30475 
0 0 0 0 0 0.9608744570902774 0 1:-0.174529 2:0.124731 3:0.256148 4:-0.0580759 5:0.0771825 6:0.142178 7:-0.158394 8:-0.346441 9:-0.0472011 10:-0.321813 
0.2794818411021467 0.4687381729107363 0.505192448500033 0.3276535673767508 0.04385530213838761 0.2757964700060999 0.4772944323228987 1:0.217053 2:0.112961 3:-0.239035 4:0.407093 5:0.199512 6:0.228639 7:-0.906254 8:-0.179288 9:-0.627579 10:-0.206936 
1.864871709038147 0 0 0 0.7333935013461952 0 0 1:-0.317992 2:-0.0424941 3:0.193638 4:0.0463371 5:0.115767 6:0.221471 7:-0.100891 8:-0.218612 9:-0.0114695 10:-0.0455376 
0 0 1.327325393496985 0 0 0 0 1:0.0968239 2:0.242816 3:0.0748367 4:0.282532 5:-0.0967235 6:0.375052 7:0.258405 8:-0.0818912 9:-0.0115981 10:-0.095174 
2.610846706661839 2.530238494031329 0 0 0 0 0 1:-0.420896 2:0.253941 3:0.199954 4:0.246411 5:-0.111343 6:0.438941 7:-0.0619109 8:-0.487511 9:-0.298555 10:-0.0400758 
2.710523756844369 1.374263644846894 0 0 0 0 0 1:-0.373607 2:0.198082 3:0.0327633 4:0.367421 5:0.311187 6:0.191432 7:0.00789655 8:-0.18458 9:-0.236114 10:-0.0221794 
0.4403702643167641 0.9241295072285115 0.3927657962959631 0 0 0.3163689692535438 0 1:-0.725582 2:0.199146 3:0.0421739 4:0.201142 5:-0.0638085 6:0.284761 7:0.315854 8:-0.638944 9:-0.146763 10:-0.202388 
0.2377401877236995 0 0 0 0 0.06540206620329617 0.3437535988426561 1:-0.629833 2:0.125764 3:0.327504 4:0.281688 5:0.240118 6:0.293444 7:0.0333886 8:-0.179805 9:-0.59423 10:-0.432892 
3.134384703093561 0 0 0 0 0 0 1:-0.100091 2:-0.157768 3:0.305533 4:-0.0065884 5:0.00539279 6:0.237107 7:0.118197 8:-0.269205 9:-0.334641 10:-0.242032 
1.516598190167857 0 0 0 0 0 0 1:-0.147867 2:0.212072 3:0.217012 4:0.128582 5:-0.299283 6:0.258014 7:-0.296717 8:-0.296405 9:-0.244792 10:-0.0594885 
0 0 0 0.2550319455810211 0 0 0 1:0.201417 2:-0.00101848 3:0.272149 4:0.214821 5:0.333651 6:0.10863 7:0.0150777 8:-0.462625 9:-0.597607 10:-0.418296 
0 0 0 2.453670743261033 0 0 0 1:-0.219682 2:0.204125 3:0.121079 4:0.00317807 5:-0.239652 6:0.36881 7:-0.017767 8:-0.394619 9:-0.102603 10:-0.159302 
0 0.3198253509133942 0 0 0 0 0 1:-0.251098 2:-0.263745 3:-0.262432 4:0.399791 5:-0.249685 6:0.427684 7:0.172194 8:-0.402204 9:-0.330117 10:-0.230169 
0 0 0 1.082829559783747 0 0 0.1700600072339494 1:0.104704 2:-0.0182062 3:0.0818884 4:0.356661 5:-0.0942957 6:0.378499 7:0.357819 8:-0.487847 9:-0.231734 10:-0.0720957 
0 0 0 0 0 0 0.01504054244102654 1:-0.181754 2:-0.0841612 3:0.148671 4:0.150076 5:-0.245978 6:0.158799 7:-0.061617 8:-0.21746 9:-0.43167 10:-0.0568751 
0 0 0 1.102075105633337 0 0 1.066187454418567 1:-0.136412 2:-0.266431 3:0.467729 4:-0.124262 5:0.276253 6:0.230937 7:0.0224279 8:-0.618468 9:0.0322122 10:-0.102772 
0 0 0 0 0 0.6832278582545852 0 1:-0.399132 2:0.0217157 3:-0.0502136 4:-0.0963021 5:0.323237 6:0.0264381 7:0.376166 8:-0.173708 9:-0.142968 10:-0.311537 
0 0 0 0 0.2037186937779868 0 0 1:-0.253444 2:-0.043186 3:0.00483349 4:0.409068 5:-0.178098 6:0.194202 7:0.0736158 8:-0.340897 9:-0.571637 10:-0.288561 
0.3065204495157324 0 0 0 0 0 0 1:-0.313984 2:-0.0760656 3:0.269812 4:-0.207095 5:0.07275 6:0.322696 7:0.382428 8:0.174544 9:-0.0872032 10:-0.258955 
0 0 1.683572821324957 0 0 0.6843904292198382 0 1:-0.728851 2:0.109771 3:0.143463 4:0.12449 5:0.0514719 6:0.115432 7:-0.126266 8:-0.417797 9:-0.174739 10:-0.142135 
0 0.1480905916227414 0 0 0.09700703636928615 0 0 1:0.138125 2:-0.216546 3:-0.248213 4:0.551721 5:-0.262925 6:0.105789 7:0.134958 8:-0.531684 9:-0.00585577 10:0.107072 
0 0.2889848917251764 0 0 0 0 0 1:-0.923298 2:0.316391 3:0.0587698 4:0.125996 5:0.0522171 6:0.388842 7:0.0492831 8:-0.635455 9:-0.430897 10:-0.353238 
0 0.6138405104060902 0 0 0 0 0 1:-0.293329 2:0.366544 3:0.153349 4:0.108133 5:0.00876968 6:0.39915 7:-0.0603087 8:-0.142887 9:0.0470779 10:-0.218347 
0.3556929917342694 0.5313719503100894 0.5829965924972851 0.3948294894753278 0.03647869509495794 0.3415426762557476 0.5923324112984537 1:0.202169 2:0.10617 3:0.562543 4:0.417509 5:0.198367 6:0.412493 7:-0.227989 8:-0.314457 9:-0.722328 10:0.403951 
0.6350733641984357 1.010274442786091 1.04859146905557 1.551678505847259 0 0 0.01071241579034165 1:-0.463947 2:0.0833277 3:0.0412579 4:0.178783 5:0.000599835 6:0.618102 7:0.187519 8:-0.652301 9:0.137411 10:0.167422 
0 0 0.031925121330575 0 0 0 0.1184082961694386 1:0.297478 2:-0.0170809 3:0.435138 4:0.0847949 5:-0.168652 6:0.0170301 7:-0.231633 8:-0.581103 9:0.192804 10:0.0608707 
0 0 0.2867275536381054 0 0 0 0.1707850968458189 1:-0.466332 2:-0.243098 3:-0.0350311 4:0.43073 5:0.268552 6:0.440225 7:-0.54322 8:-0.105583 9:-0.533054 10:-0.189975 
0 0.5736049130316647 0 0 0 0.1928842203835329 0 1:-0.0640274 2:0.0323187 3:-0.0281968 4:-0.347102 5:-0.0043574 6:0.110962 7:0.118619 8:-0.656488 9:-0.431167 10:0.116762 
0 0.3415320082218473 0.3207486437900203 0.1527098031219687 0 1.204392345453007 0.2403672715429512 1:0.110993 2:0.382251 3:0.182868 4:0.1956 5:0.301299 6:0.410617 7:-0.236896 8:-0.561309 9:0.151991 10:-0.263467 
2.565439591593794 0 0 0.9883614424361338 0 0.4374146735031217 0 1:-0.0718693 2:0.127536 3:0.00759091 4:0.171642 5:-0.459618 6:0.213396 7:-0.0537603 8:-0.502198 9:-0.347902 10:-0.150083 
0 0.01318975869222428 0 0.02749415997682025 0 0 0.04936341853024707 1:-0.149712 2:0.265066 3:0.184096 4:0.320487 5:0.0885466 6:0.462106 7:0.148089 8:0.0574397 9:0.0543228 10:-0.361682 
0.1649307667091545 0 0.03207169356723652 0 0 1.304965496475427 0.3877979615178925 1:-0.517207 2:0.366691 3:-0.202498 4:0.102902 5:0.257803 6:0.343752 7:0.307795 8:-0.557913 9:0.0975312 10:-0.247438 
0.5740584736084949 0.04917648333532124 0 0 0 0.009819253466073747 0.04722265111885748 1:0.164498 2:0.179337 3:-0.120074 4:0.809273 5:-0.301717 6:0.0988009 7:-0.232147 8:-0.582274 9:-0.186155 10:0.0613225 
1.621583216636646 1.197642526960679 1.668558391657134 0.762184340222505 0.1321563503663155 0 0.2306379291595177 1:-0.41566 2:0.303131 3:0.352972 4:0.286816 5:0.406824 6:0.257499 7:0.0548394 8:-0.267399 9:-0.0871262 10:-0.0203858 
0 0 0 1.385362336535324 0 0.8378407546111007 0 1:-0.00787526 2:0.0121759 3:0.00160957 4:-0.0593283 5:0.19148 6:0.305779 7:0.300749 8:-0.385131 9:0.0230791 10:-0.433219 
0 1.13163824836463 0.3538887773487973 0 0 0 0 1:-0.32455 2:-0.0628671 3:0.130421 4:-0.0474902 5:-0.0580643 6:0.350063 7:0.0409231 8:-0.17234 9:-0.222162 10:0.020812 
0 0 0 0 0 1.386596347487557 0 1:-0.46461 2:-0.144559 3:-0.0239777 4:-0.0414225 5:-0.169612 6:0.304257 7:0.0750612 8:-0.21115 9:-0.22724 10:-0.181666 
0 0 1.554676992032356 0 0 0 0 1:-0.199792 2:0.146954 3:0.194317 4:0.234261 5:0.0569141 6:0.0866638 7:0.0601533 8:-0.441377 9:-0.162134 10:-0.406447 
0 0.2777608877743468 0 0.4225055926219957 0 0.1950726209402554 0 1:-0.235516 2:-0.00457886 3:-0.143489 4:0.0606051 5:-0.135023 6:0.203839 7:-0.335692 8:-0.163913 9:-0.10718 10:-0.230071 
2.903816016903439 0 0 0 0 0 0 1:-0.202304 2:0.0194815 3:0.355797 4:-0.080516 5:0.0557253 6:0.311397 7:-0.166288 8:-0.398556 9:-0.0477668 10:-0.275986 
0 1.851217202151197 0 0.4083797220948283 0 2.147193192295163 0 1:-0.658381 2:0.0766853 3:0.158465 4:0.0712242 5:-0.00165127 6:0.0997354 7:-0.0433772 8:-0.467391 9:-0.176063 10:-0.13283 
0 0 0.5794601072187608 0 0 0 0 1:-0.0754486 2:0.121313 3:0.103329 4:0.179221 5:-0.327375 6:0.224567 7:0.0827155 8:-0.566678 9:-0.0823718 10:-0.604729 
0 0.6716130800776826 0 0 0 0 0 1:-0.420951 2:0.117835 3:0.0513803 4:0.490337 5:-0.199909 6:0.0903231 7:-0.132391 8:-0.518813 9:-0.193946 10:-0.473201 
0.2508630030813558 0.283285773219864 0.3153798220424881 0.2448296221643677 0 0.1868341825210501 0.2934524397143932 1:0.159571 2:-0.0322334 3:-0.296111 4:0.448359 5:-0.657395 6:0.360601 7:0.0516417 8:-0.68669 9:-0.601592 10:0.0850925 
0 0.02147741351617128 0 0 0 0 0 1:-0.311614 2:0.123788 3:0.310828 4:0.28146 5:0.228277 6:0.0816201 7:-0.0289471 8:-0.39621 9:-0.202712 10:-0.172219 
0.02812792800899072 0.01751801293957231 0.4665893983320493 0.09508721513261147 0.0114027761835251 0.04519737918814717 0.1749360086333361 1:-0.273476 2:0.134945 3:-0.121167 4:0.560027 5:0.0566633 6:0.647811 7:-0.56981 8:0.114701 9:-0.511404 10:-0.144133 
0 0 0.1550565025484195 0 0 0 0 1:0.0372841 2:0.178516 3:0.224615 4:-0.0271639 5:-0.45753 6:0.277264 7:-0.0380161 8:-0.422681 9:-0.0043106 10:-0.375112 
0 0.4429921106556622 0.4630257812207951 0.3292354473782682 0.03052209009501862 0.2703398609201728 1.032734424793607 1:0.254628 2:-0.219848 3:0.110248 4:0.134363 5:0.364969 6:0.702991 7:-0.0747923 8:-0.399291 9:-0.480887 10:0.521342 
0 0 0 4.380867753971168 0 0 1.331656869564789 1:-0.142215 2:-0.201728 3:0.294673 4:-0.0856101 5:0.152681 6:0.299096 7:-0.216799 8:-0.363805 9:-0.228542 10:-0.103805 
0 0 0 1.380609621463666 0 0 0 1:-0.217614 2:0.21932 3:0.218892 4:0.423164 5:-0.0766535 6:0.185217 7:-0.0065019 8:-0.509616 9:-0.0343575 10:-0.0984056 
8 0 0 0 0 0.2897251999762779 0 1:-0.414252 2:0.0679096 3:0.132261 4:-0.00653655 5:0.0277318 6:0.478449 7:0.138662 8:-0.309789 9:-0.00152994 10:-0.121261 
1.098763471908391 1.406397327830798 0.6005714724132147 0 0 0 0.2179903710576785 1:-0.505657 2:-0.00787157 3:0.121475 4:0.3727 5:0.473424 6:0.395093 7:-0.0102418 8:-0.243748 9:-0.523583 10:-0.18498 
0 0.5447490293174561 0 0.1199474703626388 0 0.06737799520622161 0.203632584219297 1:0.166421 2:-0.211159 3:-0.104996 4:0.679823 5:0.00198424 6:0.371368 7:0.0156739 8:-0.115328 9:-0.107439 10:-0.124643 
0.4193272862228634 0 0 0.1812321204536169 0 0 0 1:-0.103882 2:-0.148302 3:-0.152509 4:0.0243251 5:0.133793 6:0.147573 7:0.275574 8:-0.188179 9:0.0338122 10:-0.13267 
0 0 0 0.00238911923849074 0 0 0 1:0.210437 2:0.136435 3:0.0323795 4:0.359566 5:-0.0531672 6:0.287245 7:0.193539 8:-0.230522 9:-0.41606 10:-0.17552 
0 0 0 0 0.475181566075897 0 0 1:-0.407939 2:-0.106714 3:-0.0119953 4:-0.0591639 5:-0.19663 6:0.315916 7:-0.0204767 8:-0.188122 9:-0.178376 10:-0.23412 
0 0.6639078030162652 0 0 0 0 0 1:-0.353787 2:0.151087 3:-0.183682 4:0.0474001 5:0.244892 6:-0.0930695 7:0.155404 8:-0.26732 9:-0.15605 10:-0.234619 
0.1876238218660318 0.2888805844424066 0.3240227568447436 0.2529976434941447 0.009376453728370038 0.1734780014977873 0.1556436364489159 1:0.57983 2:0.596966 3:0.320861 4:0.501169 5:0.139853 6:0.548654 7:0.236757 8:-0.184921 9:-0.202026 10:0.0597267 
0 1.26337603798141 0.3887568286806911 0.0341354635495471 0 0 0.1500445205991593 1:-0.204273 2:-0.00891539 3:-0.0727022 4:0.593325 5:-0.134167 6:0.538328 7:0.0309779 8:-0.364986 9:-0.494264 10:-0.396022 
0 0 0.909380505712354 0 0 0 0 1:0.0782744 2:0.274174 3:0.0521329 4:0.343792 5:-0.279237 6:0.180458 7:0.252781 8:-0.259213 9:-0.0886865 10:0.00369186 
0 0.225219502346763 1.68518623967273 0 0 0 0 1:-0.372208 2:0.0581606 3:0.133707 4:0.418771 5:0.00923857 6:0.180713 7:0.359264 8:-0.365557 9:-0.157155 10:-0.187554 
0 0.2788459688102005 0.3856785833203641 0.3630955345401517 0 0.3892900261932549 0.454684127207008 1:-0.494334 2:-0.253395 3:-0.00510504 4:0.364254 5:0.258314 6:0.374359 7:-0.59993 8:-0.152653 9:-0.461689 10:-0.25757 
0 0.3647992632098239 0.3755035834049233 0 0 0.2859006395865277 0.806637440059739 1:0.458869 2:0.0573052 3:0.287127 4:-0.0942931 5:-0.052061 6:0.0190944 7:-0.111557 8:-0.647819 9:-0.010317 10:-0.00229613 
0 0 0 0.6649477313639479 0 0 0 1:-0.181135 2:0.31888 3:0.166874 4:0.428558 5:-0.175246 6:0.410729 7:0.184894 8:-0.460537 9:-0.223579 10:-0.0105091 
0 0 0.7952293247988127 0 0 0 0 1:-0.191482 2:0.0784631 3:0.0530565 4:0.260324 5:-0.281162 6:0.198275 7:0.0989382 8:-0.301874 9:-0.345508 10:-0.63775 
0 0 0.3477511320980545 0 0 0 0 1:-0.200196 2:0.255917 3:0.0814754 4:0.151737 5:-0.131417 6:0.321967 7:0.217716 8:-0.185961 9:-0.454754 10:0.0380258 
0 0 0 0.934332231219717 0 0 0 1:-0.22318 2:0.0163662 3:0.143344 4:0.040829 5:0.291883 6:0.136325 7:-0.0382592 8:-0.23612 9:0.00686599 10:0.0118669 
0.1874585632569145 0.5390452130643455 0.5331332441705657 0.2064332133956782 0 0.3055309821162693 0.474656070222325 1:0.462587 2:0.0810633 3:-0.139696 4:0.58542 5:-0.379226 6:0.200835 7:0.0952977 8:-0.21876 9:-0.0865901 10:0.22401 
8 0 0 0 0 0 0 1:-0.246279 2:0.00332515 3:0.0313957 4:0.0469751 5:-0.127413 6:0.357215 7:0.00563386 8:-0.140577 9:0.0456453 10:-0.105271 
0 0 0 1.62250616416734 0 0 0.2302879672285446 1:-0.0493194 2:0.428579 3:0.0727021 4:-0.080746 5:0.164455 6:0.249834 7:0.128224 8:-0.359982 9:-0.319105 10:-0.331101 
0.1291467696841986 0.1508148742178948 0 0.09513357034737847 0 0.2753871627785935 0.3383000001133152 1:0.0703443 2:0.00730645 3:-0.149522 4:0.407785 5:-0.488588 6:0.434778 7:-0.125684 8:-0.448898 9:-0.299043 10:-0.527375 
0.2254937591600694 0 0.6425240821978431 0 0.01895758772564638 0 0.3553129180249334 1:-0.482968 2:0.462194 3:0.136856 4:0.48541 5:-0.114919 6:0.253666 7:0.159976 8:-0.565855 9:-0.0176452 10:-0.414619 
0 0.1463552805715597 0 0 0 0 0.2617442231739487 1:-0.264255 2:0.405749 3:0.310236 4:0.501556 5:0.0907087 6:0.298346 7:-0.0986468 8:-0.0784311 9:-0.0831415 10:-0.220233 
0 0.04725617226773897 0.5656764479691077 0 0 0 0 1:-0.163719 2:0.271037 3:0.127444 4:-0.126953 5:-0.54147 6:0.235058 7:-0.0919136 8:-0.137585 9:-0.477984 10:-0.234724 
0.1984953241437563 0.3575329446258409 0.3623100130606603 0.2614903839265606 0.02765152369177429 0.2478415050691011 0.4166980721577059 1:0.383875 2:0.16773 3:-0.39186 4:0.46128 5:0.227799 6:0.197652 7:-0.712478 8:-0.313383 9:-0.71336 10:-0.168178 
0.2937018557254261 0 0.0974576529364112 0.3980255714806823 0.01421575566713182 0.2673432884282955 0.6195745735437398 1:-0.924905 2:0.30978 3:0.0650577 4:0.133948 5:0.0528971 6:0.390952 7:0.0482718 8:-0.650294 9:-0.471589 10:-0.355067 
0 1.101778325825452 0.2018902422665476 0 0 0 0 1:-0.479468 2:0.146073 3:0.265534 4:0.0236489 5:0.0864575 6:0.387746 7:-0.0412841 8:-0.577239 9:-0.0240554 10:-0.054259 
0 0.1419529200668408 0 0 0 0 0 1:-0.581211 2:0.268768 3:0.136253 4:0.351214 5:-0.180446 6:-0.019352 7:0.612382 8:-0.321736 9:-0.173507 10:-0.171764 
0.1311829971198199 0 0.1259171519593509 0 0 0 0 1:-0.352958 2:-0.0999606 3:0.156172 4:-0.0544393 5:0.0556116 6:0.301162 7:0.372109 8:-0.042703 9:-0.0773135 10:-0.201376 
0 0 0 0.7287859226587179 0 0 0 1:-0.268898 2:0.212199 3:0.188831 4:0.0566603 5:-0.208971 6:0.383564 7:-0.02855 8:-0.615972 9:-0.176115 10:0.0419486 
0.04160897988601302 0.2487076866575804 0.3257827770550087 0.2019584986329432 0 0.175733736930535 0 1:0.476532 2:-0.196656 3:0.143693 4:0.387016 5:-0.0727493 6:0.270373 7:-0.452457 8:-0.187959 9:0.123436 10:0.190703 
4.155403228270698 0 0 1.065235910522999 0 0 0 1:-0.00230821 2:0.172822 3:0.274492 4:0.00785171 5:-0.234813 6:0.453626 7:-0.213548 8:-0.424997 9:-0.129576 10:-0.159477 
0 0 0.5143299177783291 0 0.06536470645680517 0 0 1:-0.438873 2:0.402592 3:0.324916 4:0.63246 5:0.0660603 6:0.284729 7:-0.00634074 8:-0.321998 9:-0.244214 10:-0.655414 
0 0 0 0.07699104439641832 0 0 0.3287254246396067 1:-0.666316 2:0.330231 3:0.424116 4:-0.00649332 5:0.10084 6:0.264405 7:0.150925 8:-0.395432 9:-0.558921 10:-0.133722 
2.644255990451045 0 0 0 0 0 0 1:-0.143369 2:0.102238 3:0.0891552 4:0.328634 5:-0.0121012 6:0.224897 7:-0.214328 8:-0.387287 9:-0.219891 10:-0.0554979 
0 0 0.02546031057904213 0 0 0 0 1:0.11469 2:0.408576 3:-0.1719 4:0.30238 5:-0.0499457 6:0.0711565 7:0.0329851 8:-0.171808 9:0.0876007 10:0.168894 
0 0 1.424455763060029 0 0 0 0 1:-0.168757 2:0.0311571 3:0.153103 4:-0.0328136 5:-0.309575 6:0.153455 7:0.0213949 8:-0.456071 9:0.0148552 10:-0.459837 
0 0 0 0.2325240710846141 0 0.3335627829498971 0.1436460955475106 1:-0.0452721 2:-0.196187 3:0.12501 4:0.585129 5:-0.0106092 6:0.0735892 7:0.279156 8:-0.382266 9:-0.0915501 10:-0.370901 
0 0 0 0 0 0.139010158476657 0 1:-0.775092 2:0.204708 3:0.0230715 4:0.214455 5:-0.0682906 6:0.308489 7:0.373038 8:-0.674116 9:-0.142075 10:-0.192195 
0 0.08229338738981361 0 0.4694888983072022 0 0 0 1:-0.110352 2:0.132119 3:-0.164904 4:-0.157404 5:0.0461338 6:0.0343288 7:0.22364 8:-0.16301 9:-0.645511 10:-0.0497517 
0.280328433870575 0 0.1061504126694126 0.4458561960672124 0 0 0 1:-0.291594 2:0.315922 3:0.236002 4:0.119444 5:-0.0842755 6:0.532835 7:-0.25864 8:-0.493536 9:0.00573054 10:-0.0211129 
0.4699634303615306 0 0 0 0 0 0 1:-0.315222 2:0.270729 3:0.178786 4:0.366671 5:0.111118 6:0.248178 7:0.0669856 8:-0.506598 9:0.0270156 10:-0.0783144 
0 0 0 1.062245759127033 0 0 0 1:0.0800157 2:0.182756 3:0.277444 4:-0.0331087 5:-0.0627779 6:0.383461 7:-0.13071 8:-0.504699 9:-0.118635 10:-0.238663 
0 0 0.08972498669456019 0 0 1.808288094514142 0 1:-0.105471 2:0.198253 3:0.316908 4:0.0758347 5:-0.145633 6:0.474392 7:-0.157155 8:-0.499757 9:-0.0282773 10:-0.352448 
0 0 0.3443256997684561 0 0 0.03209846494544408 0 1:0.0262228 2:0.0611427 3:0.113944 4:0.575575 5:-0.0561274 6:0.473182 7:-0.351762 8:-0.473281 9:-0.563541 10:0.0357418 
0 0 0 0 0.004257007436933228 0.0001654995839710132 0 1:-0.390147 2:0.195748 3:-0.108575 4:0.539795 5:0.10949 6:0.698352 7:-0.611791 8:0.0591938 9:-0.505781 10:-0.137724 
0.1796548788312531 0 0 0 0 0 0 1:-0.324414 2:-0.172174 3:0.19634 4:-0.0390132 5:0.120068 6:0.297084 7:0.440348 8:-0.0283578 9:-0.123462 10:-0.249342 
2.460529078977824 0 0 0 0 0 0 1:-0.0368966 2:-0.0701871 3:0.341744 4:-0.00332962 5:-0.152105 6:0.189047 7:-0.0379265 8:-0.440171 9:0.0364869 10:-0.0902225 
0 0.2163203445845899 0 0 0 0 0 1:-0.20875 2:0.300319 3:0.0807017 4:0.0178972 5:-0.358033 6:0.437753 7:0.127754 8:-0.290905 9:-0.179192 10:-0.326959 
0 0 0 0.3983925693610717 0 0 0 1:-0.291831 2:-0.239275 3:0.272149 4:-0.199634 5:-0.102016 6:0.354374 7:0.245909 8:-0.682591 9:-0.310063 10:0.00619744 
0 0 0 0 0 0 0.05653745463482405 1:0.139146 2:0.510377 3:0.152933 4:0.475609 5:-0.168317 6:0.272048 7:0.322226 8:-0.302286 9:-0.31402 10:-0.191044 
0 0 0 0 0.2546786559661817 0 0 1:-0.141064 2:0.111828 3:0.129453 4:0.209239 5:-0.0886025 6:0.32879 7:-0.00800267 8:-0.273496 9:-0.013758 10:-0.244068 
0.1713693116246425 0 0 0 0 0 0 1:-0.0842398 2:-0.411089 3:-0.10956 4:0.684418 5:0.0485579 6:0.291559 7:-0.118751 8:-0.512376 9:-0.481042 10:-0.20958 
0 0 0.2803397353502173 0 0 0 0 1:0.0247149 2:-0.158185 3:0.0869775 4:0.389136 5:0.135726 6:0.365228 7:-0.115134 8:-0.130043 9:-0.0382094 10:-0.230992 
0 0 0 1.292935978268707 0 0 0 1:0.076939 2:0.256562 3:0.0308745 4:0.281741 5:-0.287832 6:0.195261 7:0.200979 8:-0.224431 9:-0.137396 10:0.00834283 
0 0 0 0 0 0 0.01569129283479458 1:-0.0469153 2:0.383498 3:0.215988 4:0.546333 5:-0.319606 6:0.140839 7:0.219414 8:-0.272991 9:-0.20987 10:-0.198286 
0 0 0 0.02839675592161522 0 0 0 1:-0.160761 2:-0.157235 3:-0.163134 4:0.472886 5:0.00901288 6:0.481095 7:0.245591 8:-0.387814 9:-0.451436 10:-0.181549 
0.1344951767968231 0.2137982130916664 0.2439069845643871 0.2154514116973197 0.0224635984889146 0.1511824891280731 0.2610553171804813 1:0.373098 2:-0.0328231 3:-0.275141 4:-0.484986 5:-0.0562793 6:-0.052504 7:-0.302851 8:-0.133297 9:-0.169973 10:0.12384 
0 0 0 0.8345729233509831 0 0 0.02874840246714372 1:0.381494 2:0.0843643 3:0.285855 4:-0.0694309 5:-0.0937472 6:0.0612427 7:-0.113965 8:-0.618291 9:0.0747913 10:0.00779532 
0.4163919803650223 0.6286883758424134 0.4603822300495672 0 0 0 0.05954192477828489 1:-0.244946 2:0.106945 3:-0.245094 4:0.37331 5:0.0752571 6:0.0862024 7:0.0550494 8:-0.38618 9:0.162898 10:0.00580881 
0 0.17312409128061 0 0 0 0.05881750628676388 0 1:0.0754998 2:-0.0208668 3:0.185119 4:-0.226646 5:-0.374789 6:0.288264 7:-0.0240684 8:-0.649442 9:-0.301883 10:0.000223455 
0 0 0 0.5084251494541756 0 0 0 1:-0.07964 2:0.175865 3:0.380397 4:0.0304035 5:-0.0140229 6:0.290768 7:-0.0784598 8:-0.44311 9:-0.0937352 10:-0.317772 
0 0.286231758697953 0 0.1042064658232543 0 0.1558896708078576 0 1:-0.123003 2:-0.365725 3:-0.0819571 4:0.171115 5:-0.0275334 6:0.0668289 7:0.324011 8:-0.145758 9:0.0399442 10:-0.17641 
2.215061850488518 0 0 0 0 0 0 1:-0.230397 2:0.0844724 3:-0.115663 4:0.195629 5:0.137001 6:0.165553 7:-0.0463177 8:-0.250894 9:-0.00620404 10:0.150011 
0 0 0.08835578980453188 2.758522947586835 0 1.655464864089352 0 1:-0.318186 2:0.522421 3:0.15379 4:-0.0325244 5:0.224923 6:0.437919 7:-0.0285393 8:-0.205829 9:0.0151444 10:-0.213107 
0 0 0 1.613496282853047 0 0.5218936596621486 0 1:-0.201268 2:0.149856 3:0.140705 4:0.294327 5:0.021893 6:0.0742327 7:0.00779792 8:-0.460752 9:-0.0448463 10:-0.257376 
0 0 0.3913698450676467 0 0 0 0 1:-0.165084 2:-0.124734 3:-0.0133356 4:0.846592 5:0.259408 6:0.338072 7:0.272046 8:-0.269002 9:-0.0955515 10:-0.184446 
0.7282343808418741 0 0 0 0 0.001446736650301016 0 1:-0.103774 2:-0.152064 3:0.242891 4:-0.247691 5:-0.37168 6:0.126864 7:0.00929204 8:-0.532601 9:-0.27778 10:-0.00664284 
0 0.320786554229562 0 0 0 0 0 1:-0.311614 2:0.123788 3:0.310828 4:0.28146 5:0.228277 6:0.0816201 7:-0.0289471 8:-0.39621 9:-0.202712 10:-0.172219 
0 0 0 0 0 0.01413008351013199 0 1:0.207844 2:0.25171 3:-0.0629019 4:0.435543 5:-0.164809 6:0.517017 7:-0.0128396 8:-0.484541 9:-0.451585 10:-0.222035 
0.4466166043304742 0 0 0.1401569831901261 0 0.1381296454055893 0 1:-0.228251 2:-0.251509 3:-0.10809 4:0.384741 5:-0.0696926 6:0.455955 7:-0.354238 8:-0.259928 9:-0.368437 10:-0.122524 
0 0 0.234813585041908 0.3802968484637894 0 0 0.1550696894710497 1:-0.00583553 2:-0.0315204 3:0.0518137 4:0.571445 5:0.0681211 6:0.569889 7:0.322894 8:-0.444238 9:-0.417805 10:0.0560616 
1.285907322718953 0 0.3981281660579561 0 0 0 0.7077263362561633 1:0.128567 2:-0.091668 3:-0.0642773 4:0.0343614 5:-0.290118 6:0.597798 7:-0.371294 8:-0.401108 9:-0.269464 10:-0.0707488 
0 0 0 0.4836691537032821 0 0 0 1:-0.15931 2:0.328557 3:0.179345 4:0.401013 5:-0.15046 6:0.390774 7:0.178991 8:-0.451205 9:-0.258246 10:-0.0327381 
0.7940489121046626 0 0 0 0 0 0 1:-0.355192 2:-0.0664303 3:0.119437 4:0.437502 5:0.286648 6:0.318791 7:-0.251391 8:-0.0946804 9:-0.38266 10:-0.157224 
0 1.059062625488435 2.824695611989439 0 0 2.095525364071053 0 1:-0.376294 2:0.122775 3:0.0545759 4:0.260458 5:-0.27191 6:0.219527 7:0.0785333 8:-0.527292 9:-0.0467233 10:-0.225936 
0 0.3667273050317306 0 1.851794507403074 0 0 0 1:-0.191776 2:-0.00655362 3:0.217188 4:-0.183181 5:0.171978 6:-0.087999 7:0.0588944 8:-0.425184 9:-0.291716 10:-0.0807183 
2.07652791176748 0 0 0 0 0 0 1:-0.0277151 2:-0.00331083 3:0.163664 4:-0.211614 5:-0.25991 6:0.390232 7:-0.339818 8:-0.0915827 9:-0.319011 10:-0.225436 
1.854198409806719 0 0 1.889216901855884 3.937856007897816 0 0 1:-0.049122 2:0.0784401 3:0.356543 4:0.0488478 5:0.00561399 6:0.215183 7:-0.0881523 8:-0.447228 9:0.03559 10:-0.0878453 
0 0 0.6158901453065919 0 0 0 0 1:0.00765273 2:0.239978 3:0.0480546 4:0.25772 5:-0.124687 6:0.302929 7:0.0340587 8:-0.0730105 9:-0.0658178 10:0.050241 
0 0 0.4049435237481216 0.2621931978508468 0 0.2783247605018694 0.1001268271123353 1:-0.655058 2:0.159723 3:0.324502 4:0.280205 5:0.263883 6:0.336943 7:0.0146373 8:-0.17398 9:-0.511986 10:-0.447419 
0 0.01074541609556358 0 0 0 0 0 1:-0.1451 2:-0.155168 3:0.0194527 4:0.787177 5:0.248849 6:0.325898 7:0.23792 8:-0.297844 9:-0.0791799 10:-0.173385 
0 0 0 0.4032645223478552 0 0 0.01099720510787335 1:-0.147926 2:0.0779876 3:0.42 4:0.20418 5:0.248571 6:-0.0511116 7:-0.0229799 8:-0.259318 9:-0.293404 10:-0.085961 
3.834087680376591 0 0 0 0 0 0 1:-0.0695615 2:0.121307 3:0.171847 4:0.19518 5:-0.247711 6:0.0892187 7:-0.306046 8:-0.440491 9:-0.0390394 10:-0.202587 
0 0 0 0 0 1.323542345660023 0 1:-0.359356 2:-0.230839 3:-0.0717868 4:0.0594958 5:-0.109986 6:0.281841 7:-0.0118842 8:-0.354748 9:-0.0693508 10:-0.291965 
0 0.04532772031673123 0 0 0 0.03936819144847407 0 1:0.518073 2:0.553195 3:0.341318 4:0.492241 5:0.0975556 6:0.471491 7:0.15305 8:-0.155891 9:-0.0598835 10:0.138826 
0 0.1697542756720521 0.08871300373012256 0 0.007381217816205153 0.2334862340063593 0 1:0.306919 2:0.26297 3:-0.239336 4:0.633653 5:-0.203887 6:0.281472 7:0.0472345 8:-0.63962 9:-0.350931 10:0.0710964 
0 0 0 0 1.503113800376639 0 0.5785444464510836 1:-0.249947 2:-0.179165 3:0.0317645 4:0.535911 5:0.0120808 6:0.283715 7:0.056031 8:-0.396672 9:-0.288282 10:-0.00623871 
0 0 0 0 0 0 1.522597921824727 1:0.234494 2:0.351254 3:0.19593 4:0.0481479 5:-0.0773835 6:0.300939 7:-0.153383 8:-0.389127 9:-0.222147 10:-0.372903 
0 0.3535626609029519 0.2282009127138218 0 0 0.2390286867871323 0 1:-0.20179 2:-0.243568 3:0.481111 4:-0.144079 5:0.300508 6:0.230565 7:0.0752991 8:-0.663673 9:0.0688422 10:-0.0726873 
2.248814427539327 0 0 0.8254274797771146 0 0 0 1:-0.235773 2:-0.308851 3:0.0316721 4:0.2442 5:0.206138 6:0.443595 7:-0.417936 8:-0.521295 9:-0.292023 10:0.0216597 
0 0 0 0 1.123850666559203 0 0 1:-0.178005 2:0.135981 3:0.0497736 4:0.446049 5:-0.0400685 6:0.402306 7:-0.202852 8:-0.209562 9:0.156643 10:-0.244961 
0 1.164185169213984 0 0 0 0 0 1:-0.0586469 2:0.20443 3:0.203108 4:0.23999 5:-0.271664 6:0.0917638 7:-0.304573 8:-0.40216 9:-0.062279 10:-0.184148 
0 0 0 0 0 0 0.3204949372325634 1:-0.425279 2:0.18295 3:0.268038 4:-0.113866 5:-0.333391 6:0.265452 7:-0.245654 8:-0.598232 9:-0.235998 10:-0.37712 
0.3669665460489652 0.6557866600094926 0.6811002228093334 0.4589249273640541 0.05461656172673637 0.402724208749359 0.6773791410784249 1:0.148291 2:0.283376 3:0.435335 4:0.451918 5:0.538456 6:0.439708 7:0.0509343 8:-0.0929592 9:-0.0616846 10:1 
0.03206761082593372 0.1190381983209495 0.1527480573566577 0.1857411194327422 0 0 0.2133129724688861 1:0.320078 2:0.240936 3:-0.286202 4:0.748813 5:-0.306703 6:0.304434 7:0.0832672 8:-0.621046 9:-0.312281 10:0.0888691 
0 0 0 0.0791859039910362 0 0 0 1:0.0311449 2:0.575738 3:-0.0481049 4:-0.0614806 5:0.26925 6:0.270662 7:0.178326 8:-0.299397 9:-0.379275 10:-0.17085 
0 0 0.287049707752645 0 0 0 0.3115876607460297 1:-0.147076 2:-0.0430826 3:0.147376 4:0.012358 5:-0.327532 6:0.179336 7:-0.0662494 8:-0.154909 9:-0.402343 10:0.0817311 
0 0 0.07735950808856724 1.884755650705366 0 0 0 1:-0.184588 2:0.192624 3:-0.107076 4:0.461201 5:0.0254036 6:0.0257202 7:-0.422561 8:-0.247806 9:0.300558 10:-0.179093 
2.347218355518681 0 0 0 0 0 0 1:-0.199783 2:0.0718103 3:0.152454 4:-0.225218 5:-0.265336 6:0.448878 7:0.204741 8:-0.205923 9:-0.220675 10:-0.209453 
0 0 0 0 0 0.2571217191100085 0 1:-0.155254 2:0.131137 3:0.0226115 4:-0.333301 5:-0.157732 6:0.375333 7:0.319948 8:-0.32846 9:-0.33649 10:-0.262186 
0 0 0 1.497197528040598 0 0 0 1:-0.374654 2:0.0889957 3:0.0836804 4:0.0682644 5:0.355716 6:0.0297336 7:-0.0795866 8:-0.408521 9:-0.414816 10:-0.0762045 
0 0 0 2.955791624861131 0 0.7723602374119585 0 1:-0.0561139 2:0.228738 3:0.076005 4:0.396603 5:0.114603 6:-0.0441957 7:-0.0168543 8:-0.327429 9:0.0318217 10:0.0756416 
0 0 0.7929952916657033 0 0 0 0 1:-0.333762 2:0.330853 3:0.10739 4:0.243673 5:-0.222169 6:0.412191 7:0.110195 8:-0.184215 9:-0.0973403 10:-0.0741971 
0 0 0 0 0 0.5975630166704446 0 1:-0.210781 2:-0.0099043 3:0.149585 4:-0.131519 5:0.186251 6:-0.095874 7:0.111829 8:-0.42311 9:-0.243982 10:-0.072234 
1.183398922266169 0 0 0 0 0 0 1:-0.210207 2:-0.138343 3:0.153912 4:-0.00411877 5:-0.116493 6:0.138112 7:0.057112 8:-0.317385 9:-0.243185 10:-0.326729 
0 0 0 0 0.01337022319594166 0 0 1:-0.210533 2:-0.216439 3:-0.159207 4:0.519053 5:0.0230394 6:0.447396 7:0.242804 8:-0.393626 9:-0.430624 10:-0.138859 
0.8226410503572575 0 0.1515911811393619 0 0 0 0.2121779842259659 1:0.0198704 2:-0.0220851 3:-0.0203694 4:0.198189 5:-0.366684 6:0.384373 7:-0.24043 8:-0.364973 9:-0.211198 10:-0.593103 
0.280439615396476 1.624258972906516 0.4658014007503697 0 0 0 0 1:-0.259452 2:0.265977 3:0.32114 4:0.435166 5:0.126861 6:0.436275 7:-0.105241 8:-0.219107 9:-0.204785 10:-0.328037 
3.889081280171425 0 1.189682635899679 1.226564486272021 0 0.08210906477472396 0.7382028188554846 1:-0.377668 2:-0.200271 3:-0.00907977 4:0.0723862 5:0.0280055 6:0.348287 7:-0.203486 8:-0.43429 9:0.00417089 10:-0.0235047 
0.1628916584881576 0.2869655067129369 0.3007851356557469 0.1768807058859857 0.02490597298316467 0.1778851994701703 0.2967454327879832 1:0.448706 2:-0.00463647 3:-0.514885 4:-0.612355 5:-0.267863 6:-0.00536071 7:-0.354593 8:-0.0137822 9:-0.0342364 10:0.147422 
0 0.2212665654785014 0.6537788004118208 0.1217805795142033 0 0 0 1:-0.12841 2:0.301579 3:0.17337 4:0.157142 5:-0.307585 6:0.208026 7:-0.126723 8:-0.493698 9:0.177657 10:-0.085604 
3.460063338166162 0 0 0 0 0 0 1:-0.0861457 2:-0.228953 3:0.169486 4:-0.0184403 5:-0.0192609 6:0.162183 7:-0.0374976 8:-0.457863 9:0.0331243 10:-0.00542137 
0 0 0 0 0 0 0.009095030323685672 1:-0.0197697 2:0.141487 3:0.389062 4:0.103026 5:-0.320424 6:0.103619 7:-0.0779944 8:-0.331712 9:-0.355373 10:0.0410395 
0 0 0 0 0 0 0.1757453806489381 1:-0.324547 2:0.343844 3:0.3313 4:0.613826 5:0.0162305 6:0.219527 7:0.0390005 8:-0.26238 9:-0.199424 10:-0.623358 
0 0.5826363140740843 0 0 0 3.768723095030165 0 1:-0.365901 2:0.192318 3:-0.0870994 4:0.0765002 5:0.124546 6:0.336477 7:0.256147 8:-0.500475 9:0.065455 10:-0.276381 
0 0 0 0 0 0 0.1009414784883847 1:0.466108 2:0.513327 3:0.387697 4:0.419098 5:0.109175 6:0.513771 7:0.134491 8:-0.187361 9:-0.120938 10:0.0893156 
0.3713469863977316 0 0.2672888057540299 0 0.02594168814235918 0.1367388710670628 0.1896659050213989 1:-0.131791 2:0.550833 3:0.133281 4:0.0467514 5:0.242715 6:0.475217 7:0.177519 8:-0.419149 9:-0.761532 10:-0.0982269 
0 0 0 0 0 0 0.2082571239325945 1:0.215395 2:-0.261557 3:0.25259 4:0.389203 5:0.0873138 6:0.42146 7:-0.256305 8:-0.599858 9:-0.413515 10:0.125159 
0 0.2926760025115627 0 0.6519176820543233 0.006580743122830309 0 0.2211540220155857 1:-0.200669 2:-0.0128524 3:0.275571 4:0.414523 5:0.310764 6:0.207973 7:0.0561928 8:-0.589811 9:0.198934 10:-0.367115 
0 0.1778668289144956 0.736741890232667 0.2869622513143595 0 0 0 1:-0.420632 2:-0.0421473 3:0.33865 4:0.126184 5:0.301787 6:0.216277 7:-0.0522212 8:-0.194556 9:-0.262513 10:-0.0936877 
0.1177233219536958 0.1882774928555406 0.1685718477901347 0.06171311021839958 0 0.07420583525521936 0.1969607698994405 1:0.382201 2:0.345786 3:-0.0582774 4:0.419908 5:-0.0642695 6:0.345161 7:0.591775 8:-0.48676 9:-0.95783 10:-0.0824785 
4.876628102293861 0 0 0 0 8 0 1:-0.313968 2:0.169461 3:0.0336225 4:0.236699 5:-0.03914 6:0.240681 7:-0.117319 8:-0.335004 9:-0.0128295 10:-0.19601 
3.042847562964769 0 0 1.411535171726436 0.1889529575038453 0 0.4494359065964803 1:0.072522 2:0.10945 3:0.441193 4:0.170529 5:0.0298729 6:0.370836 7:-0.0757878 8:-0.470082 9:-0.232706 10:0.164231 
0 0 0.2614207222875564 0 0 0 0 1:-0.196751 2:-0.170987 3:-0.0743687 4:0.674801 5:0.0992652 6:0.367936 7:0.231865 8:-0.335542 9:-0.184017 10:-0.111896 
0 0 0.4347608547679934 0 0 0 0 1:-0.429339 2:0.140171 3:0.0578163 4:0.435025 5:-0.220038 6:0.0885144 7:-0.176691 8:-0.500803 9:-0.1037 10:-0.526133 
0.2821318133115939 0 0.1721949315575247 1.423418531076317 0 0.127144132049938 1.98444681177513 1:0.213347 2:-0.159815 3:0.153206 4:-0.187819 5:0.3924 6:0.239757 7:-0.184127 8:-0.574079 9:0.24462 10:-0.158587 
0 0.1494777778592751 0 0 0 0 0.4957830792542269 1:0.343642 2:0.415426 3:0.0341764 4:0.377747 5:0.0709299 6:0.195099 7:0.296699 8:-0.251693 9:-0.0954252 10:-0.0839344 
0 0.1680732608719547 0.1982726218213895 0 0 0.03709509379568884 0 1:0.230878 2:0.326546 3:0.0389699 4:-0.257096 5:-0.0747765 6:0.298987 7:0.31781 8:-0.0768467 9:-0.136914 10:-0.452268 
0 0 0 3.753433952411497 0 0 0 1:-0.0407028 2:0.0934944 3:0.355384 4:0.209141 5:0.139123 6:0.272666 7:-0.0908471 8:-0.354944 9:-0.199393 10:-0.175919 
0 0 0 0 0 0.2256843523420353 0 1:-0.368357 2:-0.227187 3:-0.0795786 4:0.0750733 5:-0.105386 6:0.288831 7:-0.0105596 8:-0.349895 9:-0.0879578 10:-0.294029 
0 0 0 0.9072600196922362 0 0 0.1399429651738648 1:-0.200409 2:-0.124005 3:0.239139 4:-0.0759219 5:0.106048 6:0.423979 7:0.456993 8:0.0151084 9:-0.0738786 10:-0.154929 
0 0.2118048459603755 0 0 0 0 0 1:-0.107022 2:0.195869 3:0.203322 4:0.131622 5:-0.159598 6:0.315797 7:0.28101 8:-0.508115 9:-0.322373 10:-0.539605 
0 0 0 2.913528039730513 0 0 0 1:-0.214925 2:0.064759 3:0.216731 4:-0.109845 5:-0.197468 6:0.366049 7:0.0877173 8:-0.574302 9:-0.231927 10:0.0637041 
0 0 2.72375128219779 0 0 0 0 1:-0.408117 2:-0.0761847 3:0.366467 4:0.0904809 5:0.314387 6:0.193215 7:-0.0247453 8:-0.232214 9:-0.248365 10:-0.109431 
1.420739275328733 0 0.2224782397239613 0 0 0 0 1:0.125072 2:0.0605291 3:0.298862 4:-0.0924893 5:-0.385127 6:0.285626 7:-0.351824 8:-0.280089 9:-0.601194 10:-0.143519 
0.4385090066895195 0.7788091116844775 0.8082577666037137 0.5438459882042022 0.06444228028264903 0.4781632451189519 0.7995769601806187 1:-0.0216074 2:-0.979103 3:-0.483294 4:0.614651 5:0.42279 6:-1 7:-0.527766 8:1 9:0.540692 10:-0.507675 
0 0 0 0.1798377407416451 0 0 0 1:-0.3241 2:0.420963 3:0.183714 4:0.0339717 5:0.0814896 6:0.426043 7:-0.117882 8:-0.13132 9:0.0145325 10:-0.202075 
0.1053351624942513 0.1078739023375205 0.2342137516566509 0.01680328783361057 0 0.06593214081278977 0 1:0.4618 2:0.569933 3:-0.10442 4:0.221501 5:0.312101 6:0.174533 7:0.385998 8:-0.323168 9:-0.25476 10:-0.21308 
0.08949734444698242 0.4462072388234365 0.4017236915847855 0.3976748653507422 0 0.3137069525613374 0.5011430630264463 1:0.237122 2:0.278661 3:0.035631 4:-0.373574 5:0.0450568 6:0.00781537 7:0.177704 8:-0.528571 9:-0.260251 10:0.0896891 
0 0 0 0 0 0 0.1847358845272009 1:0.214299 2:0.121177 3:-0.0285035 4:0.445006 5:-0.0692263 6:0.291976 7:0.180433 8:-0.245818 9:-0.526467 10:-0.190235 
0 0.09749453671774939 0 0.2967641660753508 0 0 0.3540218201075438 1:-0.0138991 2:0.0872581 3:0.142239 4:-0.206622 5:-0.239116 6:0.416382 7:-0.315469 8:-0.00684981 9:-0.295234 10:-0.212802 
0 0 0.06246560944106606 1.460168644289928 0 0 0 1:-0.262707 2:0.0524418 3:0.21172 4:0.043077 5:0.374312 6:0.355814 7:0.284985 8:-0.485749 9:-0.0287746 10:-0.0865328 
0 2.477040021297358 0 0 0 0 0 1:-0.477489 2:0.243899 3:0.367095 4:0.02128 5:0.0797534 6:0.245688 7:0.194716 8:-0.547605 9:-0.278612 10:-0.0380656 
0 0 0.672846353652473 1.876292372930301 0 0 1.392037257881606 1:0.0126937 2:-0.106261 3:0.125158 4:-0.110672 5:-0.00881927 6:0.535056 7:-0.433529 8:-0.281918 9:-0.175259 10:-0.225431 
0 0.008511482537607714 0 0 0 0 0 1:-0.285531 2:0.34984 3:0.301317 4:0.473017 5:0.116511 6:0.292138 7:-0.118303 8:-0.113508 9:-0.10789 10:-0.244441 
8 0 0 0 0 0 0 1:-0.308421 2:0.149106 3:0.293807 4:0.134906 5:0.140759 6:0.371954 7:-0.0579335 8:-0.434497 9:-0.0270838 10:-0.0483847 
2.542868510028576 3.10557731841147 1.158404486309037 0 0.9101799626677117 0.8802644426089414 0 1:-0.486758 2:0.165193 3:0.137503 4:0.220553 5:0.251488 6:0.442586 7:0.0854887 8:-0.420044 9:-0.0672768 10:-0.296617 
0.5878546028408903 0 0 0.7422597181311562 0 0 0 1:0.160632 2:-0.0511777 3:0.0252006 4:-0.0816302 5:-0.280886 6:0.520534 7:-0.395886 8:-0.245598 9:-0.292079 10:-0.115416 
0 0.715491217603216 1.814693316956795 0 0 1.062444430546038 0 1:-0.366417 2:-0.172315 3:0.226087 4:0.304265 5:0.226964 6:0.183413 7:0.0991828 8:-0.436514 9:-0.0772401 10:-0.350501 
0 0 0.3382605069931748 0.332277552867787 0 0 0 1:-0.0491178 2:0.334703 3:-0.190025 4:-0.246048 5:0.226345 6:0.304844 7:0.468918 8:-0.220544 9:-0.428747 10:-0.0468114 
0 0 0 0 0 0 0.293338893931288 1:-0.122223 2:0.142294 3:0.0171765 4:-0.296295 5:-0.178908 6:0.401476 7:0.365316 8:-0.375789 9:-0.256353 10:-0.298168 
5.110402731152294 0 0 0 0 0.9817837950542159 0 1:-0.296478 2:-0.00239114 3:0.239095 4:0.271727 5:0.318594 6:0.348606 7:-0.218307 8:-0.274138 9:-0.231098 10:-0.136653 
4.063465268810547 0 0 0 0 0 0 1:-0.298728 2:-0.0279692 3:0.21343 4:0.219674 5:0.23122 6:0.41282 7:0.263765 8:-0.472569 9:0.0657541 10:-0.0981612 
0.6827127399708449 0 0 0 0 0.6097328012778845 0 1:-0.171329 2:0.189349 3:0.0797051 4:0.0304458 5:-0.530076 6:0.272379 7:0.206036 8:-0.25288 9:-0.0862434 10:0.112791 
0 0 0 0 0 0 1.091604945966019 1:0.11395 2:0.373367 3:0.225497 4:0.2433 5:0.00659128 6:0.327125 7:-0.268204 8:-0.266235 9:0.0863805 10:-0.17169 
0.6056095068125243 0 0 0 0 0.2562650457506172 0 1:0.205905 2:0.315681 3:0.25966 4:0.15716 5:-0.0998261 6:0.351299 7:-0.129057 8:-0.418932 9:-0.181126 10:-0.364993 
0 0 1.615170151192517 0 0 0 0 1:-0.313008 2:0.271161 3:0.229883 4:0.328398 5:0.168776 6:0.0554587 7:0.153469 8:-0.456942 9:-0.117753 10:-0.10478 
0 0 0 4.771611831054166 0 0 0 1:0.2428 2:0.343594 3:0.212873 4:0.0867314 5:-0.0970555 6:0.303999 7:-0.0938279 8:-0.398529 9:-0.189004 10:-0.356317 
0 0 0 0 0 0.6401510671194649 0 1:0.00930771 2:0.31058 3:0.211329 4:0.305304 5:-0.0933206 6:0.331871 7:-0.296405 8:-0.275788 9:0.107133 10:-0.348286 
0.8860070072318411 0 0.6445601277629177 0.2052144266606268 0.6550413481999312 0 0 1:-0.407337 2:0.0166405 3:0.0995524 4:-0.052318 5:0.348765 6:-0.0640909 7:-0.194674 8:-0.428763 9:-0.301238 10:0.000510482 
0 0 1.882478345545249 0 0 0 0 1:-0.251298 2:0.345454 3:0.332963 4:0.567775 5:0.00848428 6:0.291831 7:0.0733766 8:-0.218345 9:-0.193676 10:-0.551028 
0.4120079466732723 0.7307803143882291 0.7587287515661955 0.5145836530149226 0.06095916484519958 0.4489971711735873 0.7514732474696568 1:0.359753 2:0.0128813 3:-0.603479 4:-0.912497 5:-0.609331 6:0.241124 7:-0.401823 8:0.0323117 9:-0.285513 10:-0.0642468 
0.1229566478857606 0.3987594663954265 0.9000804374134469 0.1676466516332905 0.2218889711902046 0.7086702295074534 0.8644361853713525 1:-0.110395 2:0.090344 3:0.144603 4:0.329871 5:0.128798 6:0.572178 7:0.0548584 8:-0.343854 9:-0.0324122 10:-0.729521 
0 0 0 0.3162748875052213 0 0 0 1:-0.440729 2:0.409379 3:0.146029 4:-0.0340209 5:0.0814809 6:0.165572 7:-0.208238 8:-0.552814 9:-0.354013 10:0.0938206 
0.1078099036831363 0 0 0 0 0 0 1:-0.294228 2:0.251899 3:0.254802 4:0.198547 5:0.00302341 6:0.226996 7:0.18144 8:-0.401316 9:-0.209623 10:-0.0377448 
0.08857577156768263 0.3506594139279457 0.3822587583060554 0.2426842007309658 0.02997284530510913 0.2106803050165401 0.3664763720387896 1:0.433889 2:-0.0394687 3:-0.252272 4:0.763938 5:-0.370102 6:0.291026 7:-0.171273 8:-0.737444 9:-0.351542 10:-0.0592938 
0 1.01336957528735 0 0 0 0 0 1:-0.0417163 2:0.146259 3:0.237922 4:0.273149 5:0.116148 6:0.364586 7:0.095363 8:-0.0533778 9:0.180929 10:-0.388854 
0 0 0 0 0.05459355723306371 0 0 1:-0.12014 2:0.0511024 3:0.116825 4:0.19272 5:0.207097 6:0.416837 7:0.330245 8:-0.334633 9:-0.0769222 10:-0.261724 
0.106185347390023 0.05204824628353669 0.2575864796830882 0.3729788711226654 0.02594576826982024 0.16318938960256 0.2295160858777311 1:0.210396 2:0.160645 3:-0.208841 4:-0.424 5:0.336043 6:0.159399 7:-0.031362 8:0.000563374 9:-0.49727 10:0.0496139 
0 0 0 0 0 0 0.18012436477232 1:0.452068 2:0.515992 3:0.354263 4:0.51441 5:0.106569 6:0.398305 7:0.119429 8:-0.17343 9:-0.0347184 10:0.182384 
0 0 0.009547916360527649 0 0 0 0 1:0.0269607 2:0.573801 3:-0.0793203 4:-0.0604893 5:0.298428 6:0.25615 7:0.205589 8:-0.312567 9:-0.382929 10:-0.261884 
4.743939142928724 0 0 0 0 0 0 1:0.00871516 2:0.0366796 3:0.0713169 4:0.493448 5:-0.182885 6:0.216634 7:-0.153238 8:-0.58276 9:-0.0435234 10:-0.0721335 
0 0 0 0 0.1765997455234728 0 0 1:-0.254235 2:0.0477107 3:0.174895 4:0.425654 5:0.178333 6:0.32022 7:0.192898 8:-0.194641 9:-0.238796 10:-0.272394 
0.2166487816169708 0.1760929925833377 0.6189004630699628 2.867624362584483 0 0.2286177819777036 1.524143524454357 1:0.0743478 2:0.419291 3:0.188029 4:-0.113585 5:-0.392187 6:0.536716 7:-0.19385 8:-0.415789 9:-0.0547133 10:-0.129319 
0 0 0 0.4163107349450341 0.1256781097898695 0 0 1:-0.133865 2:0.135248 3:-0.01811 4:0.433581 5:0.25141 6:0.130325 7:0.109546 8:-0.201007 9:-0.223405 10:-0.000397906 
0.1706452017032659 0.8495263492033713 0.2760851122266627 0.1410573635355398 0 0 0 1:-0.40228 2:-0.0102782 3:0.0325483 4:-0.0139368 5:-0.215816 6:0.335837 7:0.500619 8:-0.223718 9:-0.0500401 10:-0.0646423 
0 0 0 0 0 0.07607349093959731 0 1:-0.229636 2:0.318945 3:0.216164 4:0.534701 5:0.107416 6:0.274187 7:-0.0839073 8:-0.191664 9:-0.0432488 10:-0.321172 
0 0 0 0.7919923346639176 0 0 0 1:-0.111431 2:0.275201 3:0.294763 4:0.333865 5:0.225268 6:0.118293 7:0.0252167 8:-0.311352 9:-0.0258462 10:-0.138232 
4.496868596774824 0 0.3838481315474453 0 0.3273694296428746 0 0 1:-0.420809 2:0.338787 3:0.28739 4:0.0517942 5:-0.11359 6:0.419585 7:-0.0335527 8:-0.299444 9:-0.289757 10:-0.0871764 
5.154838618772384 0 0 0 0 0 0 1:-0.192889 2:-0.0081879 3:0.150956 4:0.118685 5:0.193186 6:0.450764 7:-0.00278093 8:-0.234157 9:0.133533 10:-0.154833 
0 0 0 0 0 0 0.5941487015372068 1:-0.00178885 2:-0.00646876 3:-0.0224389 4:-0.173631 5:0.2329 6:0.16811 7:0.268466 8:-0.330954 9:-0.456405 10:-0.147779 
0 0.4225069441481709 0 0 0 0 0 1:-0.746584 2:0.600514 3:0.0485877 4:0.385015 5:-0.102401 6:0.454076 7:0.190119 8:-0.616932 9:0.349224 10:-0.434212 
0 0 0 0 0 0 0.380591581246529 1:-0.102277 2:0.0594104 3:0.0897185 4:0.0392152 5:-0.318325 6:0.388899 7:0.283106 8:-0.356156 9:0.0667276 10:-0.0939521 
0 0.01609282665249043 0 0 0 0.639655326100433 0 1:-0.0158598 2:0.430265 3:-0.0909019 4:0.227864 5:-0.00597695 6:0.114679 7:-0.259581 8:-0.302875 9:0.27155 10:-0.187519 
0.1031778702446065 0.3540540627309635 0.4067723924783134 0.2818546381762781 0.03753153868269275 0.2391150351616025 0.3762814341479037 1:0.233999 2:0.176772 3:-0.196141 4:0.92967 5:-0.376092 6:0.200786 7:-0.142565 8:-0.589759 9:-0.181253 10:0.0957877 
0 0 0.04902216605693116 0 0 0 0 1:-0.594543 2:0.287463 3:0.213562 4:0.277612 5:-0.164624 6:0.0244183 7:0.537827 8:-0.316686 9:-0.388252 10:-0.210941 
0 0 0 2.310431170055817 0 0 0 1:-0.0400864 2:0.181651 3:0.280642 4:-0.203963 5:-0.164457 6:0.389834 7:0.0474469 8:-0.235936 9:-0.270217 10:-0.268266 
0 0 0 0.5935073665530923 0 0 0 1:-0.398074 2:0.0211925 3:0.186058 4:-0.0449608 5:-0.0305193 6:0.241543 7:0.101401 8:-0.314197 9:-0.38966 10:-0.134641 
2.120238295585791 0.9280427362503356 0 0.8689085986350209 0 2.750417342063173 0 1:-0.143015 2:0.430071 3:0.292128 4:0.20616 5:-0.0113375 6:0.500688 7:-0.128288 8:-0.421833 9:-0.134797 10:-0.400886 
2.809773572206472 1.104247646998921 0.3719356208846258 0.8754594239263154 5.900750864835937 0 0 1:-0.171065 2:0.0162881 3:0.0267528 4:-0.164006 5:-0.343094 6:0.457176 7:-0.075507 8:0.0285525 9:-0.176296 10:-0.127119 
0 0 0 0 0 0 0.3561676691916553 1:-0.00274336 2:0.203138 3:0.0607504 4:-0.0157861 5:-0.373587 6:0.379764 7:0.169524 8:-0.524277 9:-0.189773 10:-0.052699 
0.1559192164370008 0 0 0 0 0 0 1:-0.343666 2:-0.158474 3:0.217514 4:-0.0194183 5:0.143707 6:0.429562 7:-0.0756546 8:-0.309884 9:-0.146112 10:0.0502598 
0 0 0 0 1.720560729695006 0 0 1:-0.126187 2:-0.0172001 3:0.0599817 4:0.134554 5:-0.405857 6:0.204936 7:-0.0180888 8:-0.150372 9:-0.420808 10:0.0968671 
5.458234243563441 0 0 0.9906824597072306 0.4468006735661462 0.6421779515850451 0 1:-0.219359 2:0.0699303 3:0.0384858 4:0.213892 5:-0.302932 6:0.403234 7:0.0441529 8:-0.416663 9:-0.164123 10:0.0572998 
0 0 0 0 0.0008112101304671219 0 0 1:-0.538368 2:0.0253859 3:0.0289317 4:0.0265414 5:-0.322625 6:0.233305 7:0.143455 8:-0.314691 9:-0.46139 10:-0.164872 
1.037305576204937 0 0 0 0 0 0 1:-0.314063 2:0.258789 3:0.200039 4:0.364776 5:-0.0431448 6:0.185651 7:0.0134337 8:-0.367915 9:-0.129322 10:-0.275352 
0 0 0 0.08553454160934566 0 0 0 1:-0.30662 2:0.750594 3:0.295452 4:-0.170102 5:-0.139936 6:0.221091 7:0.168447 8:-0.112805 9:0.166438 10:0.0868649 
0 0 0 0.6480374023026112 0 0 0.3530157155797251 1:0.0672496 2:0.123835 3:0.224613 4:-0.0866016 5:-0.48517 6:0.26845 7:-0.0308411 8:-0.435367 9:-0.00106434 10:-0.373096 
0 0 0 0.7078234660503615 0 0 0 1:-0.0445825 2:0.145986 3:0.0939539 4:0.40273 5:-0.213102 6:0.133938 7:0.448556 8:-0.387432 9:-0.255163 10:-0.0646453 
0.3366514675501165 0.5962225975697508 0.6147694784953202 0.4284829331926409 0.04498945162820508 0.3910655897112709 0.9324360604832201 1:0.218364 2:0.362909 3:0.300748 4:0.389293 5:-0.223344 6:0.325729 7:0.64789 8:-0.245142 9:-0.346124 10:-0.548835 
0.9801903932358429 0 0 0 0 0 0 1:-0.45327 2:-0.0925918 3:0.180736 4:0.290405 5:0.170558 6:0.292734 7:-0.162805 8:-0.339357 9:-0.293851 10:-0.0962089 
0.09563646040428683 0.1206878943947591 0.1292219301733875 0.05524572536661181 0.0130247979348905 0.07655619279881608 0 1:0.351808 2:0.477325 3:0.432804 4:0.496963 5:0.428973 6:0.326919 7:0.138094 8:-0.101388 9:0.056861 10:0.277061 
0 0 0 0 0.1180870311871878 0 0 1:0.0721291 2:0.166176 3:0.118135 4:0.587085 5:-0.0894887 6:0.382959 7:-0.166171 8:-0.353172 9:-0.548143 10:-0.0109668 
0 0 0 0 0.1108500061995533 0 0 1:-0.0814335 2:0.0380469 3:-0.171056 4:-0.141149 5:-0.0708578 6:0.0950614 7:0.219411 8:-0.57614 9:-0.466261 10:0.091116 
1.993455211180775 0 0 0 0 0 0 1:-0.385215 2:0.0468197 3:0.133326 4:0.157717 5:-0.0292298 6:0.254374 7:0.041952 8:-0.278543 9:-0.267302 10:-0.212905 
0 0 0.1653925710156002 0 0 0 0 1:-0.0272173 2:0.323033 3:0.471234 4:0.26868 5:0.0372915 6:0.0466005 7:0.107009 8:-0.334884 9:-0.424735 10:-0.338153 
0 0 0 0 0 0 0.08791458262708624 1:0.0705162 2:0.050406 3:0.350648 4:0.0120299 5:-0.159355 6:0.375907 7:-0.226835 8:-0.453111 9:-0.119746 10:-0.237932 
3.329602944803244 0 0 0.9675376332760923 1.372267142813831 0 0 1:-0.119347 2:0.302157 3:-0.012665 4:0.0622188 5:-0.0148732 6:0.22826 7:-0.158747 8:-0.246286 9:0.221667 10:-0.0495168 
1.729474386924055 0.2998471131442614 1.144890174719897 0.5443094513777885 7.094220715431119 0.3081210238921729 0.6341599165342202 1:-0.0540835 2:0.0647323 3:0.0361837 4:0.069552 5:-0.108517 6:0.401988 7:-0.605587 8:-0.428172 9:-0.31414 10:0.199833 
0 0 0 0.5466942650538833 0 0 0 1:-0.364053 2:0.819958 3:0.104459 4:-0.0354559 5:0.124431 6:0.411541 7:0.0518673 8:-0.4737 9:-0.580182 10:-0.515174 
0 0 0.5738225803943243 0 0 0 0.1861533288983661 1:0.00665182 2:0.178087 3:-0.00833324 4:0.368207 5:-0.0995977 6:0.381085 7:0.286299 8:-0.355699 9:-0.145469 10:-0.326824 
0.6703273003599596 0 0 0 0 0 0 1:0.0781234 2:0.40006 3:0.106929 4:0.119684 5:-0.0314341 6:0.330315 7:-0.274327 8:-0.210306 9:0.0459323 10:-0.150496 
0 0 0.505345517144389 0.4169435939606442 0 0 0.2887896603940404 1:-0.19192 2:0.223771 3:0.0515897 4:0.0236568 5:-0.525945 6:0.29166 7:0.257321 8:-0.275479 9:-0.00921464 10:0.14352 
0 0 0 0.6944881509742235 0 1.747470856460356 0 1:-0.0722552 2:0.462188 3:-0.0845811 4:-0.251773 5:-0.269537 6:-0.0133487 7:-0.162109 8:-0.122537 9:-0.317521 10:-0.188556 
0.3008886010897605 0 0 0 0 0 0 1:-0.299326 2:-0.118582 3:0.207432 4:-0.100836 5:0.0798572 6:0.364701 7:0.401587 8:0.0857942 9:-0.182889 10:-0.207194 
0.1229142873846201 0.3435987709303909 0.474460283776763 0 0.06138788552324305 0 0.4512243515709548 1:-0.15366 2:0.232495 3:-0.149127 4:0.384175 5:0.169958 6:-0.074109 7:-0.451489 8:-0.241099 9:0.242578 10:-0.119186 
0.1312132822159749 0.3539082769054611 0.3450911319262922 0.2244844449942041 0.01394563865416555 0.2093215740996861 0.3978698300942428 1:0.305978 2:0.448876 3:0.474409 4:0.474511 5:0.312092 6:0.551282 7:0.227982 8:-0.0898296 9:0.00676661 10:0.0182918 
0 0.1599578339979439 0 0 0 0 0 1:-0.0467562 2:0.17472 3:0.128866 4:0.290549 5:-0.248699 6:0.111833 7:-0.377053 8:-0.453246 9:-0.0706931 10:-0.213083 
1.181337364063129 0 0 0.2730406867547058 0.01766550412682838 0 0.6126689618774551 1:-0.24139 2:0.0392977 3:0.0546208 4:0.105193 5:-0.244679 6:0.415525 7:0.0513776 8:-0.488747 9:-0.334284 10:0.157157 
0 0 0 0 1.136871173526728 0 0 1:0.00891177 2:0.237568 3:-0.0394589 4:0.126381 5:-0.140255 6:0.1723 7:-0.0595271 8:-0.259618 9:-0.423084 10:-0.037895 
0.3744349007646443 0 0 1.554442881995296 0 0 0 1:0.314793 2:-0.022011 3:0.309822 4:0.172169 5:-0.18805 6:0.150999 7:-0.244598 8:-0.413839 9:0.0926939 10:0.0941674 
0 0 0 0 0.01582233150426254 0 0 1:0.276006 2:0.412462 3:-0.0469537 4:0.368154 5:-0.00130199 6:0.366668 7:0.514431 8:-0.466217 9:-0.922708 10:-0.0807875 
0 0.3106093305059507 0.2670128528805225 0 0 0.8203771802585307 0 1:-0.522114 2:0.131601 3:0.217513 4:-0.0801158 5:0.0428402 6:0.423495 7:-0.11743 8:-0.496682 9:-0.0158724 10:-0.0425344 
0 0 0 0.3325727101789832 0.07725357671067525 0.1567927514334279 0 1:0.191931 2:0.466544 3:0.130319 4:0.244465 5:0.0141387 6:0.0323446 7:0.289879 8:-0.357929 9:-0.395786 10:-0.0472504 
0.05414415550769618 0 0 0 0 0 0 1:-0.28878 2:-0.352305 3:0.130494 4:0.0941261 5:0.142381 6:0.27671 7:0.162102 8:-0.349969 9:-0.163675 10:-0.201251 
0.9492899571634411 0 0 0 0 0 0 1:-0.105256 2:0.0825012 3:0.105285 4:-0.21996 5:-0.315534 6:0.439477 7:0.238959 8:-0.276059 9:-0.105289 10:-0.123319 
0.08478208783518809 0 0 0 0 0 0 1:-0.122239 2:-0.0203568 3:0.141045 4:-0.124084 5:0.0265274 6:0.363375 7:0.237776 8:-0.122472 9:0.00522095 10:-0.0763163 
0 0.5489662732426954 0 0 0 0 0 1:-0.267256 2:0.224651 3:0.245268 4:0.331954 5:-0.0131333 6:0.275827 7:0.0354505 8:-0.261998 9:-0.27092 10:-0.34174 
0.05213523026943416 0 0 0 0 0 0.2286487972797201 1:-0.196023 2:0.238265 3:-0.217582 4:0.297983 5:0.372828 6:0.131259 7:-0.168426 8:-0.581963 9:-0.386057 10:-0.265208 
0 0.06571788550508934 1.765135931710434 0 0 0 0 1:-0.413778 2:0.168813 3:0.322516 4:0.0710038 5:0.0303839 6:0.225792 7:0.264979 8:-0.483624 9:-0.301995 10:-0.0562481 
0 0 0 0.7896172762608328 0 0 0 1:0.178897 2:0.210479 3:0.123396 4:0.456799 5:-0.040003 6:0.223563 7:0.18565 8:-0.257295 9:-0.0664725 10:0.0396932 
0 0.2404073168617698 0.1598973383112584 0 0 0 0.1945382743280452 1:0.344413 2:0.522685 3:0.396014 4:0.46965 5:0.227668 6:0.287643 7:-0.108542 8:-0.212778 9:0.0435403 10:0.109105 
0 0 1.382549167113187 0 0 0 0 1:-0.190605 2:0.296779 3:0.171399 4:0.239396 5:-0.290275 6:0.290598 7:-0.257115 8:-0.261473 9:-0.219559 10:-0.0502501 
0 0.03644844657303467 0 0.2175304803944781 0 0 0.4980363186860625 1:0.0204461 2:-0.0210492 3:0.0374311 4:-0.188338 5:0.183742 6:0.197096 7:0.294293 8:-0.304919 9:-0.495643 10:-0.195945 
0 0 0.9213188789350987 0.849610428747212 0 0.1292829081077037 0 1:-0.295777 2:-0.0678223 3:0.106775 4:-0.37146 5:-0.203086 6:0.333227 7:0.389734 8:-0.261822 9:-0.286084 10:-0.111403 
2.204168274707629 0 0 0 0.2258340253790284 0 0 1:-0.000689967 2:-0.220615 3:0.233819 4:0.256011 5:0.383941 6:0.219986 7:0.0328223 8:-0.417995 9:-0.0577145 10:-0.0599435 
0 0 0 0 0 1.976003250134723 0 1:-0.239568 2:-0.0175342 3:0.084374 4:0.434444 5:-0.0699328 6:0.0317019 7:0.0267366 8:-0.426972 9:0.0670406 10:-0.278797 
0.2460496723418444 0.4173353976249851 0 0 1.935155176512731 0 0.003648545194218 1:-0.312674 2:0.274987 3:0.288336 4:0.381459 5:0.0546024 6:0.171897 7:-0.0678318 8:-0.400816 9:0.142491 10:0.107314 
0 0 0 2.209452734721566 0 0.3049559689213642 0 1:0.0118679 2:0.113113 3:0.0825332 4:-0.275031 5:0.0119393 6:0.379713 7:0.354604 8:-0.169514 9:-0.0490374 10:-0.24135 
6.924244096226005 0 0 0 0 0 0 1:-0.238851 2:0.0091901 3:0.209105 4:0.0944305 5:0.183988 6:0.27465 7:-0.0208857 8:-0.186518 9:-0.0286095 10:-0.0125997 
0 0 0 0 0 0 0.1178529324468996 1:-0.266161 2:0.212185 3:0.270094 4:-0.103929 5:-0.342763 6:0.198803 7:-0.384817 8:-0.648471 9:-0.130883 10:-0.13067 
1.74755354211086 0 0.3313992457064151 0 0 0 0 1:-0.306116 2:0.0910307 3:0.124686 4:0.201632 5:-0.26346 6:0.207571 7:0.0805473 8:-0.466326 9:-0.0239006 10:-0.195202 
0 0 1.214427532443705 0 0 0 0 1:-0.292773 2:0.0683527 3:0.152535 4:0.0724231 5:0.111592 6:0.273375 7:0.132915 8:-0.284267 9:-0.132385 10:0.0325137 
0.7009121473293876 0.3145700846351518 0.9312496841813356 0 0 0.7671564424622065 2.417706878815788 1:-0.341875 2:-0.259745 3:0.0692972 4:0.227787 5:0.195128 6:0.280605 7:-0.0686812 8:-0.570547 9:0.0852118 10:-0.0170627 
0 0 0 0 4.249688193964699 0 0 1:-0.0357686 2:-0.0351671 3:0.330189 4:0.0052041 5:-0.152975 6:0.194702 7:-0.0288855 8:-0.389263 9:0.00246861 10:-0.0311411 
0.2148597794016448 0.429347437220063 0.5066377074055669 0.3734418236246435 0.04667387697453984 0.2600738407904621 0.4795734041612749 1:0.368234 2:-0.111306 3:-0.118201 4:0.751865 5:-0.161597 6:0.435084 7:-0.515791 8:-0.353354 9:-0.321639 10:0.155538 
0 0 0 0.5512021312953721 0 0 0 1:0.122871 2:0.513923 3:-0.121628 4:0.0168116 5:0.208279 6:0.172941 7:-0.160556 8:-0.299868 9:0.0226774 10:-0.169923 
1.111879059462258 0.282159606086644 0.3106671156547021 1.666025449904635 0 0 0.04680406068340429 1:0.0934787 2:0.183108 3:0.250659 4:0.156998 5:0.259998 6:0.386117 7:-0.411094 8:-0.535116 9:0.229179 10:-0.242422 
5.940631419605374 0 0 0.9989117315578488 0.3953479085959367 0.4832639204523004 0.5583369945883863 1:-0.198849 2:-0.260349 3:0.270081 4:0.125504 5:0.37411 6:0.266398 7:-0.239876 8:-0.303204 9:-0.249369 10:-0.251198 
0 0.04562025351158234 0.0137050955352743 0.03300431928401798 0.003596212057763499 0.01965064685962006 0.03334769082438638 1:0.416835 2:0.333616 3:0.493619 4:0.368134 5:0.297475 6:0.641505 7:0.139508 8:-0.122976 9:-0.0296516 10:0.869225 
0.05880366515364761 0 1.497725677353249 0.2853939377920529 0 0 0.09143112743743799 1:0.119705 2:-0.0478557 3:0.202027 4:0.451571 5:-0.0462623 6:0.397809 7:-0.366271 8:-0.441322 9:-0.47007 10:0.0378045 
0.09154183820616407 0 0 0 0 0.0020524711942195 0 1:-0.179356 2:-0.191569 3:0.0784348 4:-0.00808282 5:-0.138508 6:0.277343 7:0.297686 8:-0.453851 9:0.251402 10:-0.334102 
0 1.406218229183072 0.327399191402588 0.6875219001326522 0 0 0.6611921165223893 1:-0.237231 2:0.504005 3:0.180777 4:-0.0401799 5:0.270689 6:0.429169 7:0.163322 8:-0.518015 9:-0.57615 10:-0.162102 
3.051202306659345 0 0 0 0 7.719182812553699 0 1:-0.27364 2:0.409862 3:0.0665209 4:0.0859382 5:0.0168281 6:0.154411 7:-0.0649955 8:-0.267923 9:-0.195918 10:-0.0876325 
0 0 0 0 0 0.08305208833213494 0 1:0.159605 2:0.551369 3:0.129935 4:0.152633 5:0.520082 6:0.153859 7:0.283238 8:-0.404622 9:-0.158784 10:-0.357827 
0.8404540574200601 0 0 0.7259050449021907 0 0 0 1:-0.438205 2:0.263837 3:0.143311 4:0.136792 5:0.330881 6:0.0214613 7:-0.167812 8:-0.0612411 9:-0.311329 10:-0.00248106 
0 0 0 0 0 0 0.007100016533568326 1:-0.0128685 2:0.126518 3:0.0947012 4:0.0196573 5:-0.15857 6:0.200654 7:-0.171098 8:-0.148964 9:-0.436176 10:-0.129169 
3.611297010261562 0 0.6363563827207703 0 2.449793525778962 0 0.02393883796272066 1:-0.337665 2:0.367522 3:0.346593 4:0.116222 5:-0.0597071 6:0.36221 7:-0.163831 8:-0.318732 9:-0.359454 10:0.144912 
0 0.3135504544660858 0 0 0 0.5776218051870121 0.2918624299341543 1:-0.456928 2:-0.0110769 3:-0.0820359 4:-0.0895654 5:0.330921 6:0.00616972 7:0.372401 8:-0.20679 9:-0.261775 10:-0.366946 
0 0 5.889046250205239 0 0 0 0 1:0.0752915 2:0.227857 3:0.0786197 4:0.292725 5:-0.0634541 6:0.371403 7:0.259554 8:-0.0917006 9:-0.0436618 10:-0.071613 
0 0.05269287184061893 0.2008961258233729 0 0 0 0.2625733563702495 1:0.127937 2:0.000667574 3:0.379816 4:0.403235 5:0.0938991 6:0.147443 7:-0.179663 8:-0.340485 9:-0.512038 10:-0.313675 
0.2215986542004333 0 0 1.617057704601735 0 0 0 1:-0.00702661 2:0.0530978 3:0.146198 4:0.00471889 5:-0.228226 6:0.194829 7:-0.175218 8:-0.128174 9:-0.387456 10:-0.110031 
1.033485743771649 1.311170764863452 1.542357350868194 0.2078698461180899 0.5145238509300858 0 0.3137818954103215 1:-0.424249 2:-0.116662 3:0.0617906 4:0.182816 5:-0.161574 6:0.271411 7:0.482435 8:-0.498419 9:-0.297736 10:0.0665376 
0.1326051158147638 0.4526066501117966 0.4698257937787287 0.2416594103466875 0.06944261795302947 0.2485612585417558 0.4277830266842057 1:0.144129 2:-0.0388982 3:-0.279217 4:-0.00488569 5:-0.193457 6:0.0628218 7:0.258933 8:-0.67471 9:-0.492791 10:0.210095 
0 0 1.627122544622571 0 0 0 0 1:-0.0352268 2:0.421903 3:0.186098 4:0.513574 5:-0.256685 6:0.236057 7:0.322194 8:-0.266488 9:-0.164867 10:-0.183281 
0 0.02615606044131771 0 0.06476003448379311 0 0 0 1:0.358247 2:0.170794 3:-0.233775 4:-0.329695 5:0.223903 6:0.0805016 7:-0.0884188 8:0.0313135 9:-0.263151 10:0.140128 
0.1223046085125843 0.2276778739419701 0.2209503343492026 0.1942672080271422 0.01801571134659454 0.1386753772838112 0.4715782219525838 1:0.470351 2:0.103666 3:0.455555 4:0.374638 5:0.297661 6:0.467377 7:-0.164299 8:-0.180373 9:-0.62069 10:0.420237 
0.247620489338166 0.4117602056116765 0.4420355981349087 0 0.03386005413284198 0 0 1:0.257376 2:0.0777281 3:0.00979997 4:0.151697 5:0.580313 6:-0.132304 7:0.0497051 8:-0.523469 9:-0.638262 10:-0.127091 
0.2101457548121483 0.3767800820907812 0.3893514553999921 0.1641036514153651 0.03156809852481843 0.2364253450575886 0.1471543810908968 1:0.370225 2:0.654874 3:0.290768 4:0.339925 5:0.6384 6:0.203004 7:0.00120042 8:0.0167578 9:-0.297117 10:0.179902 
0 6.635115973201135 0 0 0 0 0 1:-0.293493 2:0.166645 3:0.0470845 4:0.245933 5:-0.0604501 6:0.253486 7:-0.112372 8:-0.298373 9:-0.0148929 10:-0.212633 
0 0 0 1.151731723348536 0.8942812687541885 0 0 1:-0.0279461 2:0.247292 3:-0.00885317 4:0.052946 5:-0.103767 6:0.130336 7:-0.0564729 8:-0.266204 9:-0.339686 10:-0.0330741 
0 0 0 0 0 0.3824494797163265 0 1:-0.114248 2:0.328915 3:0.286145 4:0.0470238 5:-0.0861614 6:0.509274 7:-0.0774077 8:-0.228422 9:0.174457 10:-0.212356 
0 0 0 0 0 0.6091141468609821 0 1:-0.18953 2:0.259141 3:0.243326 4:0.266111 5:-0.315219 6:0.119454 7:-0.0883457 8:-0.269036 9:-0.349556 10:0.032608 
0.4514448047630844 0 0 0 0.6967273634566996 0 0 1:-0.148979 2:0.0766868 3:0.202691 4:-0.134402 5:-0.0604443 6:0.339083 7:-0.161957 8:-0.351405 9:0.220221 10:-0.154946 
0 0 0 0.6299238329210303 0 0 0 1:-0.366284 2:-0.210412 3:0.297383 4:-0.200938 5:0.0384977 6:0.323417 7:-0.0102192 8:-0.555089 9:-0.177536 10:-0.0243273 
1.080673514051565 0.6865383780610615 0.4483702130540282 0.7272633848885944 0 0.2118460501855543 0.6626890188183532 1:-0.185991 2:-0.199069 3:0.185297 4:-0.25797 5:-0.0712913 6:0.449608 7:-0.123439 8:-0.519544 9:0.250077 10:-0.0195042 
0.7068540347505845 0.4706077581934094 0.09698453493429487 1.955137963922974 0 0 0.514171551110587 1:-0.161256 2:-0.224028 3:0.395564 4:0.01727 5:0.368182 6:0.326655 7:-0.0753427 8:-0.571068 9:0.229016 10:-0.0499647 
